tree
version=v3
num_class=1
num_tree_per_iteration=1
label_index=0
max_feature_idx=57
objective=regression
feature_names=online_pred city_id o_plac_5m o_plac_1h o_elmsc o_is_demot o_is_noon_pk o_wkday o_is_wkends o_is_diffc s_dwd_wt_15m r_sex r_level r_is_fresh order_status food_taken o_pft s_temp_15m s_rain_15m s_wind_15m s_aqi_15m s_ord_cnt s_sw_rate s_ord_cnt_7 s_sw_rate_7 s_plac_pft_7 s_demot_rate_30 s_sw_rate_30 s_plac_pft_30 r_age r_first_ord_tm r_accu_work_day_cnt r_ord_cnt_per_hour r_ord_cnt_per_trip r_week_work_ratio r_avg_deliver_time r_avg_deliver_speed r_sunny_speed r_rainy_speed r_timeout_ratio r_cancel_ratio r_ord_cnt local_elemT8 global_elemT8 local_pdst global_pdst local_cost global_cost local_duration global_duration local_customer_distance global_customer_distance order_num distance_sum status is_require_time L_DSTm R_DSTm
feature_infos=[1.0532333334287007:65.450000000000003] none [1:288] 11:12:18:17:19:13:22:20:21:10:16:14:23:15:0:8:9:2:1:7:3:6:4:5 1:0:3:2:99:6 none 1:0 5:0:4:6:1:2:3 1:0 1:0 2:3:0:1:5:7 1:0:-1 20:15:0:10:5:-1 1:0:-1 1:0 1:0 [6.0800000000000001:29.379999999999999] [-1:33] [-1:0.68999999999999995] [-1:4.4000000000000004] [-1:136] [-1:403] [-1:0.83330000000000004] [-1:2349] [-1:0.71430000000000005] [-18.379999999999999:22.5] [-1:0.1087] [-1:0.66669999999999996] [-18.379999999999999:21.32] [-9999:56] none [-1:0] [-1:0] [-1:23] [-1:0] [-1:0] [-1:0] none none [-1:0] [-1:2] [-1:0] [-2.3500000000000001:79.099999999999994] [0:1] [-2.6000000000000001:78.099999999999994] [0:1] [0:733.39999999999998] [0:1] [-11:59] [0:1] [0.78668260000000001:11472.522000000001] [0:1] [2:9] [78.010254000000003:15045.271000000001] [0:1] none [-60:0] [-2.3500000000000001:60]
tree_sizes=2923 2988 2998 3004 2976 2994 2976 2976 2983 2985 2977 2996 2981 2967 2993 2972 2987 2977 2978 2970 2991 2987 3000 2983 2960 2992 2961 2975 2985 2983 2986 2976 2951 2983 2967 2991 2976 2959 2990 2957 2970 2986 2964 2976 2972 2968 2979 2964 2944 2985 2971 2967 2961 2963 2965 2961 2961 2966 2963 2956 3002 2966 2963 2950 2956 2963 2994 2967 2968 2921 2982 2967 2961 2973 2926 2976 2971 2977 2925 2987 2968 2981 2933 2954 2959 2974 2962 2978 2954 2964 2927 2940 2971 2967 2955 2950 2960 2977 2969 2918 2966 2953 2962 2972 2987 2952 2941 2966 2948 2965 2962 2970 2951 2948 2976 2937 2977 2959 2952 2961 2950 2969 2968 2953 2960 2983 2959 2959 2967 2946 2961 2956 2939 3000 2953 2981 2969 2966 2940 2979 2965 2973 2955 2954 2968 2977 2955 2956 2955 2994 2967 2948 2972 2986 2969 2968 2992 2984 2939 2977 2959 3007 2950 2922 2946 2915 2968 2942 2969 2970 2916 2954 2950 2989 2962 2922 2965 2988 2976 2944 2945 2973 2919 2972 2949 2945 2923 2927 2978 2941 2929 2929 2945 2969 2983 2930 2944 2983 2935 2929 3011 2936 2966 2966 3007 2951 2953 2963 2962 2936 2977 2982 2977 2951 2976 2983 2999 2965 2952 2960 2947 2956 2974 2992 2931 2953 2920 2964 2946 2959 2946 2989 2926 2965 3003 2994 2976 2954 2955 2968 2932 2963 2969 2955 2960 2972 2957 2956 2957 2994 3025 2991 2997 2978 2972 2996 3002 2981 2957 2958 2991 2932 2959 3014 2969 2998 3007 3008 2936 3005 2982 2996 3004 2951 3017 2990 2960 2933 3006 2947 2985 2959 2994 2973 3001 2941 3005 2952 3014 3008 2970 2993 2931 3019 2992 2994 3057 2993 2981 3035 2951 2960 3000 2952 3017 3005 3017 2944 2998 2980 3018 3010 2952 3010 2936 2973 2964 3021 2960 2968 3036 2974 3033 3006 2959 3027 2968 2980 3038 2952 2988 3037 2951 3027 2975 2953 3051 2940 2952 3005 2971 2998 2964 3046 2962 3042 2977 2972 2995 2988 2987 2929 2972 3024 3008 3036 2995 3005 3008 3036 2976 2989 3014 2985 3033 2992 3012 2960 3009 2967 3050 2985 2968 2968 3021 2953 2920 2982 2987 2926 3011 2948 3021 2950 2981 3010 2962 2960 2956 3012 3053 2972 2997 2956 2935 3041 2983 2964 2947 2953 3026 2954 3009 2919 3013 2937 2946 2987 2979 2981 2981 3025 2976 3016 2937 2975 3005 3043 2969 3029 2964 3034 2959 2999 2981 2991 3053 2948 3030 3006 2971 2998 3051 2951 3039 2993 2932 3067 3027 2955 2936 3013 2954 2965 3057 3040 2970 3071 3049 2959 3053 2950 3029 3067 2982 2983 2974 2941 3061 2972 2995 2989 2977 2957 3062 3012 2977 3064 2968 2984 2905 3013 2990 2898 2982 2949 2951 2991 3058 2971 2952 2901 2927 3074 2899 3002 3063 3012 3070 2998 2890 2955 2915 3076 3065 2972 2929 3002 2991 3070 2887 3036 2982 2920 2941 2996 3064 2972 2933 3005 3061 2927 2983 3068 3005 3027 2955 2975 3047 2999 2957 3056 2939 3040 2969 2959 3019 2906 3068 2950 2970 3056 3060 2922 2920 2926 3002 3020 3062 2876 2950 3049 2927 3076 2967 2901 2950 2976 3065 2973 2953 3062 2917 2926 3062 2888 2951 2985 2926 3059 2915 3048 2981 2970 3078 2981 2898 2871 2936 2945 3053 2947 2950 2946 2922 3066 2959 2985 3075 2985 3058 2895 2923 2934 3074 2943 3066 2921 3049 2959 2977 2929 2983 3058 2945 3046 2961 2928 3073 2976 2938 3058 2910 2977 3061 2909 2938 3049 3009 2937 2929 3055 3087 2979 2945 3049 2935 2945 3085 2977 3046 2970 3069 2931 3050 2978 3006 3065 2978 3007 3043 2940 2915 3072 3011 2898 3076 3073 2906 2951 2938 2898 3066 2946 3009 3062 2933 2958 3072 2963 2933 3054 2920 3079 3026 2958 3090 2941 2899 2920 2966 3043 2951 3064 3080 3023 2953 2990 2955 2960 3086 2993 2925 3070 2978 2938 2953 3060 2961 2953 3049 3055 2989 2941 2954 2948 3065 2967 3075 2961 2998 2924 3061 2998 2988 3027 2939 2900 3040 3022 2973 2958 2951 2934 3033 2956 2938 2975 3068 2953 2905 2935 2958 2947 3074 2919 3040 2884 3026 2931 3041 2976 3084 2934 2960 3092 2973 2941 2961 2951 2975 3074 3049 2922 2946 2954 3040 2943 2913 3032 2947 2967 3062 2912 3042 2962 2913 2888 2958 2958 3041 3030 2962 2916 3048 2961 2929 2952 2956 2903 2954 3032 3028 2862 2941 2943 3021 2968 2947 2912 2994 2967 2903 3047 2969 2941 2879 3051 2954 2935 3004 2965 2953 2968 3013 2923 3058 2988 2996 2966 2957 3034 2934 2960 2977 2938 3026 2984 2981 2965 2951 3013 2972 2866 2917 2880 2954 2962 3064 2840 2905 2948 2959 3054 2940 2982 2864 2942 2875 2859 2996 2949 3016 3004 2995 3005 2964 2914 2969 2915 3063 2920 2934 2893 2955 2960 2959 3021 2956 2920 2944 3094 2977 2946 2897 2953 2960 2955 2974 2904 2929 2895 2976 2963 2924 2931 2970 2938 2873 3035 3046 3075 2948 2889 2872 2918 2863 3061 2988 3034 2949 2866 2894 2889 2959 2991 2951 2979 2960 2915 2991 3067 2838 3088 2908 2844 2899 2956 2954 2940 3031 2952 3038 3048 2959 2993 2959 2990 2932 2971 2874 2935 2866 2849 2868 3049 2926 2948 2965 2941 2868 2997 2931 2899 2874 2984 2833 2954 2895 2952 2792 2974 2965 2925 2954 2967 2832 2927 2838 3015 2942 2920 2878 2830 2893 3022 2813 2832 2894 2857 3050 2888 2868 3029 2906 2848 2970 2906 2983 2844 3015 2943 2983 2944 2799 2895 2992 2982 2883 2964 2942 2838 2955 3000 2938 2812 2936 3004 2857 2800 2877 3002 2932 2918 2940 2855 3001 2992 2860 2948 2856 2934 2798 2859 2843 2830 2998 2922 3014 2906 2988 3018 2862 2833 3014 3014 2992 2892 2864 2975

Tree=0
num_leaves=31
num_cat=1
split_feature=44 0 44 15 44 0 44 0 0 0 50 44 44 44 0 0 0 0 44 0 44 44 0 0 0 50 0 50 42 44
split_gain=2.35189e+07 4.68325e+06 3.73318e+06 1.33727e+06 1.1631e+06 1.12988e+06 600814 474567 404794 347791 316141 268922 267078 213644 184460 146255 102143 89308.3 80062.4 74303.9 69800.4 67893.2 67084.9 58792.2 57221.2 57214.8 53257.7 48621.1 47764.8 43274.7
threshold=38.008333000000007 19.208333333333336 46.008333000000007 0 32.024999500000007 28.850358333190286 52.591666000000011 26.518074999252956 14.636391667524975 31.968358333905538 632.3824350000001 42.008333000000007 26.924999000000003 30.024999500000003 22.434400000174843 37.808333333333344 26.217966665824257 37.103333334128074 42.008333000000007 33.434291666746141 30.024999500000003 48.991667000000007 23.168049999078118 16.634975000222529 22.752008332808817 1432.6944000000001 35.500408333539973 252.77328500000002 59.10833250000001 21.641666500000003
decision_type=2 2 2 1 2 2 2 2 2 2 2 2 2 2 2 2 2 2 2 2 2 2 2 2 2 2 2 2 2 2
left_child=1 3 5 10 12 14 9 24 20 22 27 26 25 -10 -2 -8 -14 -13 -16 -9 -5 -11 -4 -15 -6 -3 -7 -1 -17 -12
right_child=2 4 6 8 7 11 15 19 13 21 29 17 16 23 18 28 -18 -19 -20 -21 -22 -23 -24 -25 -26 -27 -28 -29 -30 -31
leaf_value=26.308102689173044 26.542119685968199 26.43654663319851 26.587515208819251 26.415640728316347 26.511709344671512 26.589569397402162 26.689058386166526 26.550471523612003 26.445138851606615 26.662874290691192 26.387888803371716 26.618091725163772 26.490569991655395 26.471180675002817 26.565057285804762 26.729477561530942 26.519343682007282 26.644204136480507 26.59137844215045 26.572540306796835 26.443935162015947 26.688813128907441 26.632617731816868 26.491233881263192 26.529785082652737 26.471512831646081 26.609348622449399 26.353821650548579 26.773963567791707 26.428211347221673
leaf_weight=4967 26844 6921 4156 14238 35301 32076 9386 49012 20415 23469 5044 30325 30295 25636 31801 8876 20813 23056 18153 22152 22492 17702 15970 34024 34756 14450 23651 4375 3315 5635
leaf_count=4967 26844 6921 4156 14238 35301 32076 9386 49012 20415 23469 5044 30325 30295 25636 31801 8876 20813 23056 18153 22152 22492 17702 15970 34024 34756 14450 23651 4375 3315 5635
internal_value=0 -5.39628 7.03749 -9.96434 -2.47148 4.54919 12.6193 -0.800155 -8.67003 11.0219 -17.5155 6.61751 -5.72797 -7.40923 1.6107 17.1576 -4.48666 8.22158 2.7468 1.01869 -11.4187 12.6873 7.61498 -6.45373 -2.64774 -8.69652 5.08096 -21.7641 19.442 -13.7988
internal_weight=0 350526 268780 136826 213700 185906 82874 141221 116805 61297 20021 109108 72479 80075 76798 21577 51108 53381 49954 71164 36730 41171 20126 59660 70057 21371 55727 9342 12191 10679
internal_count=619306 350526 268780 136826 213700 185906 82874 141221 116805 61297 20021 109108 72479 80075 76798 21577 51108 53381 49954 71164 36730 41171 20126 59660 70057 21371 55727 9342 12191 10679
cat_boundaries=0 1
cat_threshold=2
shrinkage=1


Tree=1
num_leaves=31
num_cat=1
split_feature=44 0 44 15 44 0 44 0 0 0 50 44 44 44 0 0 0 0 44 0 44 44 0 0 0 0 50 50 42 44
split_gain=2.30509e+07 4.59006e+06 3.65889e+06 1.31066e+06 1.13995e+06 1.10768e+06 588858 465123 396739 340870 309850 282157 261763 209393 155727 143344 100110 98156.9 76423.5 72846.6 68411.4 66542.2 65749.9 62162.5 57622.3 56082.5 56076.3 47653.6 46814.3 42413.6
threshold=38.008333000000007 19.208333333333336 46.008333000000007 0 32.024999500000007 28.134599999586744 52.591666000000011 26.518074999252956 14.636391667524975 31.968358333905538 632.3824350000001 42.008333000000007 26.924999000000003 30.024999500000003 21.685508332649871 37.808333333333344 26.217966665824257 36.752791666984564 42.008333000000007 33.184824999173486 30.024999500000003 48.991667000000007 23.168049999078118 35.500408333539973 16.634975000222529 22.752008332808817 1432.6944000000001 252.77328500000002 59.10833250000001 21.641666500000003
decision_type=2 2 2 1 2 2 2 2 2 2 2 2 2 2 2 2 2 2 2 2 2 2 2 2 2 2 2 2 2 2
left_child=1 3 5 10 12 14 9 25 20 22 27 23 26 -10 -2 -8 -14 -13 -16 -9 -5 -11 -4 -7 -15 -6 -3 -1 -17 -12
right_child=2 4 6 8 7 11 15 19 13 21 29 17 16 24 18 28 -18 -19 -20 -21 -22 -23 -24 -25 -26 -27 -28 -29 -30 -31
leaf_value=-0.23666105531532566 -0.008162005016255339 -0.10950154882805554 0.039957340029969139 -0.13019839587450915 -0.035090464706363837 0.040685648145746524 0.14048508224603562 0.0029584693214175319 -0.10099525355917367 0.1145628293427442 -0.15767280155714544 0.068689295359790653 -0.056018425258553446 -0.075213848613761486 0.014578820391295273 0.1805000673586353 -0.027532471581144493 0.095452441829802462 0.040826509475130487 0.024448856030838507 -0.1021869075582586 0.14024228087230184 0.08460883472121801 0.061572420404796366 -0.055361173553597036 -0.017195485370564156 -0.074885012844978324 -0.19139928287570818 0.22454120600497177 -0.11775348256697289
leaf_weight=4967 22093 6921 4156 14238 35301 35844 9386 47565 20415 23469 5044 31610 30295 25636 31348 8876 20813 24192 17168 23599 22492 17702 15970 23651 34024 34756 14450 4375 3315 5635
leaf_count=4967 22093 6921 4156 14238 35301 35844 9386 47565 20415 23469 5044 31610 30295 25636 31348 8876 20813 24192 17168 23599 22492 17702 15970 23651 34024 34756 14450 4375 3315 5635
internal_value=0 -5.34232 6.96712 -9.8647 -2.44677 4.5037 12.4932 -0.792153 -8.58333 10.9116 -17.3403 6.4139 -5.67069 -7.33513 1.38453 16.986 -4.44179 8.0292 2.38669 1.0085 -11.3045 12.5604 7.53883 4.89888 -6.38919 -2.62126 -8.60956 -21.5464 19.2476 -13.6609
internal_weight=0 350526 268780 136826 213700 185906 82874 141221 116805 61297 20021 115297 72479 80075 70609 21577 51108 55802 48516 71164 36730 41171 20126 59495 59660 70057 21371 9342 12191 10679
internal_count=619306 350526 268780 136826 213700 185906 82874 141221 116805 61297 20021 115297 72479 80075 70609 21577 51108 55802 48516 71164 36730 41171 20126 59495 59660 70057 21371 9342 12191 10679
cat_boundaries=0 1
cat_threshold=2
shrinkage=0.01


Tree=2
num_leaves=31
num_cat=1
split_feature=44 44 0 0 15 44 44 0 0 0 44 50 0 0 44 44 0 44 42 44 0 0 44 0 0 50 0 50 50 0
split_gain=2.26009e+07 4.28541e+06 3.88302e+06 1.18516e+06 1.17588e+06 1.00614e+06 756413 484258 375779 304636 277358 264171 193989 173869 163149 155935 91132.5 83139.9 80628.9 74416 71151.4 68392.2 65260.9 62545.5 57423 56507.7 46808.4 46715.1 39781.2 39202.6
threshold=37.074999000000005 44.991667000000007 18.501491665840152 27.700158333778386 0 30.024999500000003 51.241667000000007 25.886675000190738 31.968358333905538 14.335116666555406 40.991667000000007 461.34520000000003 37.445083332061778 21.685508332649871 30.024999500000003 25.225000500000004 36.920108334223436 34.091666000000011 41.408334000000004 55.44166700000001 24.585783332586292 25.285508332649872 47.991667000000007 35.654383333524073 22.434400000174843 651.43970000000013 27.800999999046329 1037.9206500000003 1432.6944000000001 16.401658332347875
decision_type=2 2 2 2 1 2 2 2 2 2 2 2 2 2 2 2 2 2 2 2 2 2 2 2 2 2 2 2 2 2
left_child=2 3 4 13 11 15 8 24 20 25 23 -1 26 -2 -11 28 -12 -9 -15 -14 -3 -17 -10 -5 -7 -6 -8 -13 -4 -16
right_child=1 6 5 10 9 7 12 17 22 14 16 27 19 18 29 21 -18 -19 -20 -21 -22 -23 -24 -25 -26 -27 -28 -29 -30 -31
leaf_value=-0.22271466823279171 -0.014189462100914957 0.041484398468314546 -0.11847162100247244 0.033046283375604057 -0.12605590818078924 -0.043135008148659643 0.098560540853448897 -0.012425884016473151 0.10572580611163492 -0.10282599417608207 0.061213881536584976 -0.16480700838556239 0.16485463987760388 0.0050468704115033411 -0.077538166641665851 -0.069889633863739864 0.086464432700703628 0.0092215926929596608 0.030393830476056698 0.20844379837107407 0.078545741168756303 -0.041552093314889946 0.12999886647812489 0.054830302555456407 -0.025864937232748634 -0.098976500864645045 0.14186315209932601 -0.12419383522015733 -0.084533060733350263 -0.060081415428611333
leaf_weight=7289 27940 7351 5472 38810 18923 43550 3413 30179 26328 19018 36976 5983 9755 26812 24993 21047 23300 43050 23593 6544 17541 14306 19121 19958 34509 13000 9294 5378 9364 26509
leaf_count=7289 27940 7351 5472 38810 18923 43550 3413 30179 26328 19018 36976 5983 9755 26812 24993 21047 23300 43050 23593 6544 17541 14306 19121 19958 34509 13000 9294 5378 9364 26509
internal_value=0 6.29849 -5.79406 3.60245 -10.2694 -3.10426 11.6552 -1.81714 9.88325 -8.93981 5.59028 -17.5728 15.9521 0.58197 -7.77957 -6.98411 7.09746 0.0300275 1.6911 18.2356 6.76009 -5.84225 11.5938 4.04443 -3.55001 -11.5028 13.0232 -14.5582 -9.70507 -6.85529
internal_weight=0 296736 322570 197389 121093 201477 99347 151288 70341 102443 119044 18650 29006 78345 70520 50189 60276 73229 50405 16299 24892 35353 45449 58768 78059 31923 12707 11361 14836 51502
internal_count=619306 296736 322570 197389 121093 201477 99347 151288 70341 102443 119044 18650 29006 78345 70520 50189 60276 73229 50405 16299 24892 35353 45449 58768 78059 31923 12707 11361 14836 51502
cat_boundaries=0 1
cat_threshold=2
shrinkage=0.01


Tree=3
num_leaves=31
num_cat=1
split_feature=44 44 0 15 0 44 44 0 0 0 50 0 44 44 0 44 44 0 44 0 0 44 0 44 44 50 44 50 0 0
split_gain=2.21511e+07 4.20275e+06 3.80575e+06 1.15248e+06 1.03295e+06 986121 895348 474621 402452 298574 258914 223440 197161 159902 155600 152832 97551 89664.8 81755.1 67031.2 66151.5 62876.4 61300.8 58778.7 56876 55383.2 53931.2 45785.5 42724.3 39807.6
threshold=37.074999000000005 44.274999500000007 18.501491665840152 0 27.700158333778386 30.024999500000003 50.44166700000001 25.886675000190738 32.801733332872395 14.335116666555406 461.34520000000003 36.267450000842423 40.991667000000007 30.024999500000003 21.901374999682112 25.225000500000004 55.44166700000001 25.485383333762488 33.141667500000004 25.285508332649872 36.117491666475935 47.225000500000007 35.654383333524073 39.991667000000007 33.35833250000001 651.43970000000013 54.908334000000004 1037.9206500000003 31.734158333142602 22.317233333985012
decision_type=2 2 2 1 2 2 2 2 2 2 2 2 2 2 2 2 2 2 2 2 2 2 2 2 2 2 2 2 2 2
left_child=2 4 3 10 14 15 8 24 17 25 -1 26 22 -11 -2 -4 -13 -3 -9 -17 -14 -10 -6 -16 -7 -5 -8 -12 -20 -26
right_child=1 6 5 9 12 7 11 18 21 13 27 16 20 -15 23 19 -18 -19 28 -21 -22 -23 -24 -25 29 -27 -28 -29 -30 -31
leaf_value=-0.22048752158990628 -0.014291134376439026 0.041235663147729092 -0.096080199905065167 -0.12479534995103848 0.032715820118232049 -0.046816640430355473 0.10844207410060527 -0.016404529251043902 0.10007121594785483 -0.10179773398755826 -0.16315893823729546 0.15764450374284963 0.057242106296949709 -0.067867336717453167 0.0043662201429645357 -0.069190739116742256 0.20340816931797406 0.076344604504805555 -0.00071049856476723434 -0.041136573435829521 0.080663305779860611 0.12350096924299613 0.054282001385939242 0.026926853336477305 -0.036989340394864026 -0.097986737594155313 0.15109684016312083 -0.12295189570208168 0.017602036324294083 -0.019223407568985881
leaf_weight=7289 28519 10954 14836 18923 38810 27202 9698 20931 26045 19018 5983 13690 28535 51502 23586 21047 7060 21654 30330 14306 20886 20445 19958 22627 27707 13000 4269 5378 21968 23150
leaf_count=7289 28519 10954 14836 18923 38810 27202 9698 20931 26045 19018 5983 13690 28535 51502 23586 21047 7060 21654 30330 14306 20886 20445 19958 22627 27707 13000 4269 5378 21968 23150
internal_value=0 6.23551 -5.73612 -10.1667 3.26692 -3.07322 11.0066 -1.79897 9.14839 -8.85041 -17.397 15.2401 5.24194 -7.70178 0.407706 -6.91427 17.3215 6.45505 0.0297272 -5.78383 6.71402 11.0375 4.00398 1.54125 -3.51451 -11.3878 12.1479 -14.4126 0.698176 -2.89023
internal_weight=0 296736 322570 121093 182921 201477 113815 151288 79098 102443 18650 34717 108189 70520 74732 50189 20750 32608 73229 35353 49421 46490 58768 46213 78059 31923 13967 11361 52298 50857
internal_count=619306 296736 322570 121093 182921 201477 113815 151288 79098 102443 18650 34717 108189 70520 74732 50189 20750 32608 73229 35353 49421 46490 58768 46213 78059 31923 13967 11361 52298 50857
cat_boundaries=0 1
cat_threshold=2
shrinkage=0.01


Tree=4
num_leaves=31
num_cat=2
split_feature=44 0 44 44 0 44 0 0 0 50 42 44 44 0 0 44 44 0 50 44 44 0 15 0 44 0 15 50 0 42
split_gain=2.1716e+07 4.32487e+06 3.44751e+06 1.29283e+06 1.04537e+06 1.02857e+06 558140 405983 389403 324890 282087 237407 229100 185781 153733 109980 105228 87760.4 82239.3 80616 78181.7 76532.7 68309.6 62094.9 60682 54620.6 54007.6 50183.5 42938.5 37710.5
threshold=38.008333000000007 19.552816667159401 46.008333000000007 26.408333000000002 29.300216666857406 32.024999500000007 36.267450000842423 27.020349999268852 15.187608333428702 388.35702500000008 54.324999000000005 42.008333000000007 26.924999000000003 22.434400000174843 27.25074166655541 32.524999500000007 54.274999500000007 26.518074999252956 632.3824350000001 42.008333000000007 18.125000000000004 37.103333334128074 0 34.353916666905093 49.491667000000007 23.266974999507273 1 1507.3729500000002 35.654383333524073 52.591666000000011
decision_type=2 2 2 2 2 2 2 2 2 2 2 2 2 2 2 2 2 2 2 2 2 2 1 2 2 2 1 2 2 2
left_child=1 3 4 9 13 12 14 25 18 22 24 28 27 -2 29 -10 -16 -14 26 -15 -11 -13 -1 -9 -8 -7 -5 -3 -6 -4
right_child=2 5 6 8 11 7 10 23 15 20 -12 21 17 19 16 -17 -18 -19 -20 -21 -22 -23 -24 -25 -26 -27 -28 -29 -30 -31
leaf_value=-0.22340620150680718 -0.0048332055758474688 -0.10390447437979297 0.055302964366555428 -0.19417302051132598 0.041852540919945093 -0.03198285632410254 0.11897579527196492 0.0052064062993288822 -0.080146561507881783 -0.16480178332719381 0.18882444471455689 0.068861594253342137 -0.053155554614034872 0.018079880205921727 0.099786038379096942 -0.054411111818583387 0.15714533707831144 -0.025923618618970013 -0.088082232292588339 0.043461759081653513 -0.12192219612237418 0.0933181891854305 -0.15561564738802161 0.027237467251824261 0.14707152600425757 -0.014376977171989673 -0.1130933561955506 -0.070809717294872912 0.0599693686059391 0.096637955271142384
leaf_weight=5918 26844 7017 9436 856 30259 36573 18196 49684 26509 5592 11438 28752 29790 34223 23920 44448 3692 19634 19925 19726 17746 23056 1985 17230 13311 34006 20410 13203 23046 2881
leaf_count=5918 26844 7017 9436 856 30259 36573 18196 49684 26509 5592 11438 28752 29790 34223 23920 44448 3692 19634 19925 19726 17746 23056 1985 17230 13311 34006 20410 13203 23046 2881
internal_value=0 -5.18532 6.76237 -9.40712 4.37116 -2.26281 12.1264 -0.676861 -7.8223 -15.0962 14.6288 6.45013 -5.39384 1.6664 9.43504 -6.40257 10.7456 -4.23375 -10.268 2.73606 -13.2197 7.97455 -20.6379 1.08793 13.0846 -2.35001 -11.6357 -8.22947 4.96852 6.49714
internal_weight=0 350526 268780 143389 185906 207137 82874 137493 112148 31241 42945 105113 69644 80793 39929 70957 27612 49424 41191 53949 23338 51808 7903 66914 31507 70579 21266 20220 53305 12317
internal_count=619306 350526 268780 143389 185906 207137 82874 137493 112148 31241 42945 105113 69644 80793 39929 70957 27612 49424 41191 53949 23338 51808 7903 66914 31507 70579 21266 20220 53305 12317
cat_boundaries=0 1 2
cat_threshold=2 2
shrinkage=0.01


Tree=5
num_leaves=31
num_cat=1
split_feature=44 44 0 15 0 44 44 0 0 0 50 0 44 44 0 0 44 0 44 44 0 44 0 0 44 44 50 50 0 0
split_gain=2.12884e+07 4.03941e+06 3.65794e+06 1.10993e+06 992571 948048 860804 455481 387222 287750 249031 214555 189173 153469 149307 147409 92506.8 86050.7 78991.9 67739.2 63482.9 60311.9 60251.8 58731.5 56492.8 54712.5 53388.7 42816.1 38897.2 37792.4
threshold=37.074999000000005 44.274999500000007 18.501491665840152 0 27.700158333778386 30.024999500000003 50.44166700000001 25.886675000190738 32.801733332872395 14.335116666555406 632.3824350000001 37.445083332061778 40.991667000000007 30.024999500000003 21.901374999682112 24.484916667143509 55.44166700000001 25.485383333762488 34.091666000000011 24.524999500000003 35.654383333524073 47.225000500000007 28.652300000190738 35.654383333524073 39.991667000000007 33.258333000000007 651.43970000000013 219.10590000000002 22.317233333985012 16.401658332347875
decision_type=2 2 2 1 2 2 2 2 2 2 2 2 2 2 2 2 2 2 2 2 2 2 2 2 2 2 2 2 2 2
left_child=2 4 3 10 14 15 8 25 17 26 27 22 23 -11 -2 19 -13 -3 -9 -4 -14 -10 -8 -6 -16 -7 -5 -1 -27 -15
right_child=1 6 5 9 12 7 11 18 21 13 -12 16 20 29 24 -17 -18 -19 -20 -21 -22 -23 -24 -25 -26 28 -28 -29 -30 -31
leaf_value=-0.22926009351377474 -0.013995131141867373 0.04042421862965339 -0.10238181552849257 -0.12238103362880479 0.032090692500486205 -0.046168890620140166 0.09321674551629261 -0.012122431079514089 0.098121932292077635 -0.099752519441739657 -0.13453624104833753 0.15602245475881207 0.055521857042495952 -0.075333845955247225 0.0042723133954240492 -0.046227852411024152 0.2024370906846622 0.074818313333796641 0.0089781150946369823 -0.070908318969602827 0.078296578046932144 0.121068920462947 0.13536186553308752 0.05320008570871753 0.026389910152124517 -0.036388433143904782 -0.096059571664520685 -0.1861350353437585 -0.018973053703389836 -0.05819393513733026
leaf_weight=4589 28519 10954 10263 18923 38810 26342 4962 30179 26045 19018 9441 12489 27106 24993 23586 19433 6544 21654 43050 20493 22315 20445 10722 19958 22627 28182 13000 4620 23535 26509
leaf_count=4589 28519 10954 10263 18923 38810 26342 4962 30179 26045 19018 9441 12489 27106 24993 23586 19433 6544 21654 43050 20493 22315 20445 10722 19958 22627 28182 13000 4620 23535 26509
internal_value=0 6.11288 -5.62331 -9.967 3.20255 -3.01263 10.7903 -1.76322 8.96832 -8.67523 -17.0626 14.9414 5.13857 -7.54761 0.399781 -6.77881 17.1981 6.32643 0.0282197 -8.14107 6.58053 10.8213 12.2028 3.92596 1.51016 -3.44382 -11.1662 -20.7625 -2.84632 -6.65116
internal_weight=0 296736 322570 121093 182921 201477 113815 151288 79098 102443 18650 34717 108189 70520 74732 50189 19033 32608 73229 30756 49421 46490 15684 58768 46213 78059 31923 9209 51717 51502
internal_count=619306 296736 322570 121093 182921 201477 113815 151288 79098 102443 18650 34717 108189 70520 74732 50189 19033 32608 73229 30756 49421 46490 15684 58768 46213 78059 31923 9209 51717 51502
cat_boundaries=0 1
cat_threshold=2
shrinkage=0.01


Tree=6
num_leaves=31
num_cat=2
split_feature=44 0 44 44 0 44 0 0 0 50 42 44 44 0 0 44 44 0 44 44 50 0 15 0 44 0 50 15 0 42
split_gain=2.08669e+07 4.15629e+06 3.31338e+06 1.24671e+06 1.00506e+06 988329 536962 390488 368887 323014 271189 227974 220885 178156 147673 102078 100261 84329.8 80030.8 77502.2 77375.5 73969.6 68370.2 60264.7 58124.2 52467.3 48934.5 47688.8 41408.1 36728.9
threshold=38.008333000000007 19.552816667159401 46.008333000000007 26.674999000000003 29.300216666857406 32.024999500000007 36.267450000842423 27.020349999268852 15.187608333428702 388.35702500000008 54.324999000000005 42.008333000000007 26.924999000000003 22.434400000174843 27.25074166655541 54.274999500000007 32.524999500000007 26.518074999252956 18.125000000000004 42.008333000000007 632.3824350000001 37.103333334128074 0 34.353916666905093 49.491667000000007 23.266974999507273 1507.3729500000002 1 38.573066665728895 59.10833250000001
decision_type=2 2 2 2 2 2 2 2 2 2 2 2 2 2 2 2 2 2 2 2 2 2 1 2 2 2 2 1 2 2
left_child=1 3 4 9 13 12 14 25 20 22 24 28 26 -2 -4 -16 -10 -14 -11 -15 27 -13 -1 -9 -8 -7 -3 -5 -6 -12
right_child=2 5 6 8 11 7 10 23 16 18 29 21 17 19 15 -17 -18 -19 -20 -21 -22 -23 -24 -25 -26 -27 -28 -29 -30 -31
leaf_value=-0.21890047687469846 -0.0047262464099487147 -0.10205359524598835 0.063682723341956737 -0.18996574732066715 0.043807884885846332 -0.031356331566027545 0.11666147066882487 0.0050858079778572218 -0.078078400225750744 -0.16180713651930642 0.1729448164908661 0.067469269061734866 -0.052084689335450823 0.017700313503556064 0.097767224698529526 0.15426136019131378 -0.053314301147451441 -0.025390314681706092 -0.11869180746344514 0.042587178467446279 -0.086004932311005824 0.091512838157306486 -0.15260602717560121 0.026789779700912068 0.14415869170193041 -0.014100975390297445 -0.069373286361393185 -0.1106229152499469 0.064551376824810422 0.21148717992644908
leaf_weight=5969 26844 7017 12317 787 40702 36573 18196 49684 25861 5592 7823 28752 29790 34223 23920 3692 44448 19634 18709 19726 19688 23056 2104 17230 13311 34006 13203 20231 12603 3615
leaf_count=5969 26844 7017 12317 787 40702 36573 18196 49684 25861 5592 7823 28752 29790 34223 23920 3692 44448 19634 18709 19726 19688 23056 2104 17230 13311 34006 13203 20231 12603 3615
internal_value=0 -5.08294 6.62885 -9.22164 4.28462 -2.21795 11.8875 -0.663337 -7.62931 -14.6819 14.3419 6.32311 -5.28712 1.63252 9.24768 10.5321 -6.2423 -4.14802 -12.8613 2.68 -10.025 7.81693 -20.1623 1.06745 12.8278 -2.30424 -8.07144 -11.3594 4.87123 18.5126
internal_weight=0 350526 268780 143389 185906 207137 82874 137493 111015 32374 42945 105113 69644 80793 39929 27612 70309 49424 24301 53949 40706 51808 8073 66914 31507 70579 20220 21018 53305 11438
internal_count=619306 350526 268780 143389 185906 207137 82874 137493 111015 32374 42945 105113 69644 80793 39929 27612 70309 49424 24301 53949 40706 51808 8073 66914 31507 70579 20220 21018 53305 11438
cat_boundaries=0 1 2
cat_threshold=2 2
shrinkage=0.01


Tree=7
num_leaves=31
num_cat=2
split_feature=44 44 0 15 0 44 44 0 0 0 50 0 44 44 44 0 44 0 44 0 0 0 0 44 0 50 0 50 50 3
split_gain=2.04593e+07 3.88242e+06 3.51646e+06 1.06234e+06 953764 924341 828524 448710 372980 269111 232467 205456 181525 146060 145674 143325 89118.1 82785 76235.9 73337.5 63811.6 58571.6 57622.1 56584.5 55477.7 47787 46333.9 40700.9 38053.4 37143.3
threshold=37.074999000000005 44.274999500000007 18.383433334032699 0 27.700158333778386 30.024999500000003 50.44166700000001 25.886675000190738 32.801733332872395 14.184091667334242 632.3824350000001 37.445083332061778 40.491667000000007 30.024999500000003 25.225000500000004 21.685508332649871 55.44166700000001 25.485383333762488 34.091666000000011 35.654383333524073 24.484916667143509 45.019625000158953 28.652300000190738 39.991667000000007 21.685508332649871 651.43970000000013 34.068133334318809 219.10590000000002 1432.6944000000001 1
decision_type=2 2 2 1 2 2 2 2 2 2 2 2 2 2 2 2 2 2 2 2 2 2 2 2 2 2 2 2 2 1
left_child=2 4 3 10 15 14 8 24 17 25 27 22 26 -11 28 -2 -13 -3 -9 -14 -16 29 -8 -17 -7 -5 -6 -1 -4 -10
right_child=1 6 5 9 12 7 11 18 21 13 -12 16 19 -15 20 23 -18 -19 -20 -21 -22 -23 -24 -25 -26 -27 -28 -29 -30 -31
leaf_value=-0.22480390616201654 -0.014460564090191412 0.039576938491814755 -0.11330866229760565 -0.12096637289293576 0.02779430084005791 -0.042944441888422676 0.0915336073609435 -0.011918878071327044 0.10720844304981986 -0.098474443523411725 -0.13271487328842552 0.15292789324612918 0.052358166117186848 -0.066117193430675292 -0.068339032371598399 0.0037188186001496917 0.19848448268093472 0.073312072424503633 0.0088103044041131472 0.074923672467678157 -0.041559736600446484 0.12823536757948858 0.13274874805056858 0.025514876667601036 -0.026203387683363943 -0.09512720537624357 0.047226670875940659 -0.1827096773829702 -0.080547696936358618 0.084921266989036806
leaf_weight=4585 27061 10954 5662 17984 27883 37226 4962 30179 25607 19132 9258 12489 32578 51510 18986 24410 6544 21654 43050 25815 16747 9505 10722 23261 42274 11889 21913 4603 9485 11378
leaf_count=4585 27061 10954 5662 17984 27883 37226 4962 30179 25607 19132 9258 12489 32578 51510 18986 24410 6544 21654 43050 25815 16747 9505 10722 23261 42274 11889 21913 4603 9485 11378
internal_value=0 5.99266 -5.51272 -9.83226 3.13945 -2.98898 10.5783 -1.75919 8.7908 -8.55209 -16.808 14.6508 5.03725 -7.48805 -6.68049 0.392015 16.8591 6.19794 0.0267432 6.23342 -5.57884 10.6094 11.9709 1.43542 -3.40424 -11.0683 3.63456 -20.3716 -9.27939 10.0404
internal_weight=0 296736 322570 118961 182921 203609 113815 152729 79098 100515 18446 34717 108189 70642 50880 74732 19033 32608 73229 58393 35733 46490 15684 47671 79500 29873 49796 9188 15147 36985
internal_count=619306 296736 322570 118961 182921 203609 113815 152729 79098 100515 18446 34717 108189 70642 50880 74732 19033 32608 73229 58393 35733 46490 15684 47671 79500 29873 49796 9188 15147 36985
cat_boundaries=0 1 2
cat_threshold=2 4065280
shrinkage=0.01


Tree=8
num_leaves=31
num_cat=1
split_feature=44 44 0 0 15 44 44 0 0 0 44 50 0 0 44 0 0 44 42 44 44 0 0 0 0 50 44 0 50 0
split_gain=2.00522e+07 3.80685e+06 3.44649e+06 1.05067e+06 1.0412e+06 905947 674318 439781 335209 263756 245354 227841 171630 154263 143154 143024 81263.6 74781.3 71908.9 66361.9 66246 64075.4 58838.3 55596.8 54373.7 46836 43306.3 40445.6 39891 37033.1
threshold=37.074999000000005 44.991667000000007 18.383433334032699 27.700158333778386 0 30.024999500000003 51.241667000000007 25.886675000190738 31.968358333905538 14.184091667334242 40.991667000000007 632.3824350000001 37.445083332061778 21.685508332649871 30.024999500000003 24.484916667143509 36.920108334223436 33.141667500000004 41.408334000000004 55.44166700000001 24.524999500000003 24.585783332586292 39.403200000524528 33.550783334175755 21.685508332649871 651.43970000000013 54.908334000000004 29.98528333306313 219.10590000000002 16.401658332347875
decision_type=2 2 2 2 1 2 2 2 2 2 2 2 2 2 2 2 2 2 2 2 2 2 2 2 2 2 2 2 2 2
left_child=2 3 4 13 11 15 8 24 21 25 23 28 26 -2 -11 20 -12 -9 -15 -14 -4 -3 -10 -5 -7 -6 -8 -19 -1 -16
right_child=1 6 5 10 9 7 12 17 22 14 16 -13 19 18 29 -17 -18 27 -20 -21 -22 -23 -24 -25 -26 -27 -28 -29 -30 -31
leaf_value=-0.22255586690393114 -0.013369800573373326 0.038803233556836889 -0.099755465208916858 0.028633019362698429 -0.11975671058724351 -0.042514997197544438 0.10830045501372235 -0.015708832853045137 0.098055545729853172 -0.097489699379319353 0.057591829531094263 -0.13138772509766786 0.15533686361977125 0.0047204687195131542 -0.073719253240052726 -0.044808841814455345 0.081436002671767205 -0.0034934026853456661 0.028657585054954082 0.19649963915120647 -0.069009884856293974 0.073973463246284316 0.12081498998082787 0.048093376027878096 -0.025941353760090085 -0.094175933991786101 0.1462822983001284 0.014276295180813215 -0.18088258041484498 -0.0567554389303725
leaf_weight=4585 27940 7351 10542 30197 17984 37226 7844 20931 23114 19132 36976 9258 9755 26812 26419 19433 23300 22422 23593 6544 20905 17541 22335 28571 42274 11889 4863 29876 4603 25091
leaf_count=4585 27940 7351 10542 30197 17984 37226 7844 20931 23114 19132 36976 9258 9755 26812 26419 19433 23300 22422 23593 6544 20905 17541 22335 28571 42274 11889 4863 29876 4603 25091
internal_value=0 5.93274 -5.45759 3.39168 -9.73393 -2.95909 10.9815 -1.74159 9.30847 -8.46657 5.26333 -16.64 15.0386 0.547746 -7.41317 -6.61369 6.68089 0.0264758 1.59247 17.1864 -7.93167 6.35871 10.924 3.8094 -3.3702 -10.9576 12.2836 0.66578 -20.1678 -6.5456
internal_weight=0 296736 322570 197389 118961 203609 99347 152729 70341 100515 119044 18446 29006 78345 70642 50880 60276 73229 50405 16299 31447 24892 45449 58768 79500 29873 12707 52298 9188 51510
internal_count=619306 296736 322570 197389 118961 203609 99347 152729 70341 100515 119044 18446 29006 78345 70642 50880 60276 73229 50405 16299 31447 24892 45449 58768 79500 29873 12707 52298 9188 51510
cat_boundaries=0 1
cat_threshold=2
shrinkage=0.01


Tree=9
num_leaves=31
num_cat=1
split_feature=44 0 44 44 0 44 44 0 50 0 0 44 0 44 44 0 50 44 44 15 44 0 0 0 0 0 0 50 0 50
split_gain=1.96579e+07 3.91839e+06 3.12517e+06 1.30848e+06 946789 794539 506879 444707 342604 314300 285268 214618 167301 160824 113368 99546.5 88571 84942.8 73129.4 72410.1 70983.3 69740.3 66072.2 56795.9 52222.4 47547.2 43618.4 43081.6 39331 38019.2
threshold=38.008333000000007 20.684016666809722 46.008333000000007 26.674999000000003 29.300216666857406 32.024999500000007 53.324999000000005 15.685525000095369 413.52117500000003 32.434483333428709 28.351466667652137 42.008333000000007 22.434400000174843 27.424999000000003 32.524999500000007 38.16798333326976 632.3824350000001 18.125000000000004 42.008333000000007 0 49.491667000000007 37.103333334128074 23.569675000508628 26.518074999252956 13.087383333841961 23.884716665744786 35.217925000190739 1432.6944000000001 38.573066665728895 905.68875000000014
decision_type=2 2 2 2 2 2 2 2 2 2 2 2 2 2 2 2 2 2 2 1 2 2 2 2 2 2 2 2 2 2
left_child=1 3 4 8 12 13 9 16 19 22 25 28 -2 27 -9 -8 24 -10 -14 -1 -11 -13 -4 -15 -5 -7 -12 -3 -6 -19
right_child=2 5 6 7 11 10 15 14 17 20 26 21 18 23 -16 -17 -18 29 -20 -21 -22 -23 -24 -25 -26 -27 -28 -29 -30 -31
leaf_value=-0.21094207685941829 -0.0045679646230824354 -0.095496912755737753 0.039282261661489792 -0.1258078244011212 0.042491052272784088 -0.02651754942868632 0.13578779374205149 -0.071459852351164047 -0.15550852083016359 0.10766128983722056 0.0082030004836028455 0.065462293582236888 0.017143454389406818 -0.04721569654990445 -0.046524744813909065 0.18335009472394803 -0.080894565338414839 -0.12882083604880096 0.04131804076699775 -0.14656363263240554 0.13391945807915911 0.088808386225908628 0.081077542976774955 -0.023768159042978746 -0.095452386568225564 -0.0098870111318423767 0.029043355292797956 -0.062231527399209084 0.062707592035353865 -0.10142724539252615
leaf_weight=6290 26844 5419 4824 9612 40702 30742 7819 28465 5637 25282 43100 28752 34223 22937 50727 10065 25186 8197 19726 2419 17367 23056 17517 18796 13810 39002 13094 13827 12603 13266
leaf_count=6290 26844 5419 4824 9612 40702 30742 7819 28465 5637 25282 43100 28752 34223 22937 50727 10065 25186 8197 19726 2419 17367 23056 17517 18796 13810 39002 13094 13827 12603 13266
internal_value=0 -4.93349 6.43395 -8.50716 4.15728 -1.80544 11.5411 -7.0102 -13.8497 10.2437 -0.370796 6.13579 1.5832 -4.76837 -5.54875 16.2556 -9.3912 -12.0962 2.59827 -19.306 11.8354 7.5852 7.20529 -3.66552 -10.791 -1.72175 1.30591 -7.15979 4.72709 -11.1889
internal_weight=0 350526 268780 163609 185906 186917 82874 127800 35809 64990 125938 105113 80793 60979 79192 17884 48608 27100 53949 8709 42649 51808 22341 41733 23422 69744 56194 19246 53305 21463
internal_count=619306 350526 268780 163609 185906 186917 82874 127800 35809 64990 125938 105113 80793 60979 79192 17884 48608 27100 53949 8709 42649 51808 22341 41733 23422 69744 56194 19246 53305 21463
cat_boundaries=0 1
cat_threshold=2
shrinkage=0.01


Tree=10
num_leaves=31
num_cat=2
split_feature=44 44 0 15 0 44 44 0 0 0 50 0 44 0 0 44 44 0 0 0 44 0 0 44 44 44 50 0 50 3
split_gain=1.92711e+07 3.66024e+06 3.31481e+06 986344 898080 893058 780993 445006 351610 237343 208511 193651 171101 144121 134933 129163 84201.5 78004.6 77821.5 69188.9 61681.4 56394.8 55464.7 51537.9 51139.6 45475.5 45356.6 43776 37927.2 36364.7
threshold=37.074999000000005 44.274999500000007 18.15082499980927 0 27.700158333778386 30.024999500000003 50.44166700000001 25.485383333762488 32.801733332872395 14.184091667334242 461.34520000000003 37.445083332061778 40.491667000000007 23.884716665744786 21.901374999682112 30.024999500000003 55.44166700000001 25.485383333762488 32.917016667127619 35.654383333524073 24.524999500000003 45.019625000158953 28.652300000190738 33.35833250000001 39.991667000000007 34.008333000000007 888.3959050000002 34.068133334318809 1037.9206500000003 1
decision_type=2 2 2 1 2 2 2 2 2 2 2 2 2 2 2 2 2 2 2 2 2 2 2 2 2 2 2 2 2 1
left_child=2 4 3 10 14 13 8 23 17 26 -1 22 27 20 -2 -11 -13 -3 25 -14 -4 29 -8 -7 -16 -9 -5 -6 -12 -10
right_child=1 6 5 9 12 7 11 18 21 15 28 16 19 -15 24 -17 -18 -19 -20 -21 -22 -23 -24 -25 -26 -27 -28 -29 -30 -31
leaf_value=-0.20595544305831776 -0.013308382374962935 0.038409865302797767 -0.09948619205807438 -0.1142971152035763 0.026942349199879222 -0.045489073554608836 0.088564404246859463 -0.016433320314823439 0.10413181340515121 -0.096271854058063794 -0.1538759237608629 0.14843932282170347 0.050795870197747062 -0.046110429558553698 0.0040488399254126513 -0.065025244099341781 0.19272141804492265 0.071156501509102438 0.016367442633751689 0.072713836318134217 -0.069347072643478905 0.12471407502025551 0.12900062318711539 -0.028496828195136832 0.025092434654663244 0.0015095425322587254 -0.08533353161667584 0.045830722911833995 -0.11618501224632402 0.0821014561339619
leaf_weight=7266 28519 10954 10359 22784 27883 27425 4962 25659 25607 18167 5829 12489 32578 22139 23586 48672 6544 21654 19998 25815 19711 9505 10722 51122 22627 31424 7089 21913 4926 11378
leaf_count=7266 28519 10954 10359 22784 27883 27425 4962 25659 25607 18167 5829 12489 32578 22139 23586 48672 6544 21654 19998 25815 19711 9505 10722 51122 22627 31424 7089 21913 4926 11378
internal_value=0 5.81604 -5.35024 -9.66478 3.04567 -2.96847 10.2685 -1.76785 8.53307 -8.39912 -16.4571 14.2225 4.88724 -6.54737 0.379651 -7.35181 16.3665 6.01559 -0.0608588 6.04856 -7.97299 10.2988 11.6208 -3.44297 1.43523 -0.655583 -10.7424 3.52543 -13.6613 9.74048
internal_weight=0 296736 322570 114733 182921 207837 113815 155628 79098 96712 18021 34717 108189 52209 74732 66839 19033 32608 77081 58393 30070 46490 15684 78547 46213 57083 29873 49796 10755 36985
internal_count=619306 296736 322570 114733 182921 207837 113815 155628 79098 96712 18021 34717 108189 52209 74732 66839 19033 32608 77081 58393 30070 46490 15684 78547 46213 57083 29873 49796 10755 36985
cat_boundaries=0 1 2
cat_threshold=2 4065280
shrinkage=0.01


Tree=11
num_leaves=31
num_cat=1
split_feature=44 0 44 44 0 44 0 0 50 0 42 44 0 44 44 0 44 44 50 15 44 0 0 44 0 0 50 0 0 44
split_gain=1.88888e+07 3.76876e+06 3.00551e+06 1.26085e+06 909653 763575 489347 421755 338318 274133 245043 206130 160440 155202 135421 108674 103683 86578.4 84084.6 72524.1 70328.1 67265.1 54579.7 52717 48921.4 45679.9 42016.8 41976.2 37941.5 35383.2
threshold=38.008333000000007 20.684016666809722 46.008333000000007 26.924999000000003 29.300216666857406 32.024999500000007 36.267450000842423 15.685525000095369 413.52117500000003 28.351466667652137 54.324999000000005 42.008333000000007 22.434400000174843 27.424999000000003 54.274999500000007 27.25074166655541 33.024999500000007 19.308334000000006 632.3824350000001 0 42.008333000000007 37.984866666793828 26.518074999252956 49.491667000000007 13.087383333841961 23.884716665744786 1432.6944000000001 35.067799999316541 38.573066665728895 41.524999500000007
decision_type=2 2 2 2 2 2 2 2 2 2 2 2 2 2 2 2 2 2 2 1 2 2 2 2 2 2 2 2 2 2
left_child=1 3 4 8 12 13 14 18 19 25 23 28 29 26 15 -4 -9 -10 24 -1 -14 -13 -15 -8 -5 -7 -3 -11 -6 -2
right_child=2 5 6 7 11 9 10 16 17 27 -12 21 20 22 -16 -17 -18 -19 -20 -21 -22 -23 -24 -25 -26 -27 -28 -29 -30 -31
leaf_value=-0.20666238239486562 -0.012682891871627838 -0.093823185204773132 0.055023637275597038 -0.12289566589693163 0.041634640995830079 -0.025977425818636851 0.11112713458340061 -0.068170698673309535 -0.14726470301011929 0.0078987174775022491 0.17622845434734224 0.065154890335222676 0.016782902035569064 -0.046247328038676851 0.13672158570926571 0.092970122473649636 -0.044713650080517885 -0.10732849648770647 -0.078960949731226804 -0.14347955795812878 0.040489954836520313 0.088475683345800582 -0.023261807571152333 0.13731412486566652 -0.093343368075277294 -0.0096767095751960023 -0.060971449967929088 0.028002928037596402 0.061490853217610379 0.011575885929607453
leaf_weight=6336 17752 5419 11026 9473 40702 30742 18196 31428 7347 42444 11438 31404 34223 22937 4983 23920 47059 20788 24924 2547 19726 20404 18796 13311 13707 39002 13827 13750 12603 9092
leaf_count=6336 17752 5419 11026 9473 40702 30742 18196 31428 7347 42444 11438 31404 34223 22937 4983 23920 47059 20788 24924 2547 19726 20404 18796 13311 13707 39002 13827 13750 12603 9092
internal_value=0 -4.83601 6.30683 -8.34078 4.07417 -1.76827 11.3152 -6.8396 -13.4744 -0.361857 13.6583 6.01349 1.55108 -4.67289 8.79516 8.09974 -5.41064 -11.7757 -9.17111 -18.8546 2.54512 7.43395 -3.58949 12.2191 -10.5421 -1.68618 -7.02213 1.2818 4.63293 -0.44665
internal_weight=0 350526 268780 163609 185906 186917 82874 126591 37018 125938 42945 105113 80793 60979 39929 34946 78487 28135 48104 8883 53949 51808 41733 31507 23180 69744 19246 56194 53305 26844
internal_count=619306 350526 268780 163609 185906 186917 82874 126591 37018 125938 42945 105113 80793 60979 39929 34946 78487 28135 48104 8883 53949 51808 41733 31507 23180 69744 19246 56194 53305 26844
cat_boundaries=0 1
cat_threshold=2
shrinkage=0.01


Tree=12
num_leaves=31
num_cat=1
split_feature=44 44 0 15 44 0 44 0 0 0 0 50 44 0 0 44 44 0 0 0 44 44 44 44 0 50 0 0 50 44
split_gain=1.85204e+07 3.51773e+06 3.18859e+06 950755 858001 843463 770302 426878 300292 233612 228350 200054 157268 138884 124765 124099 103901 75091.6 72347.5 65154.8 64187.1 61417.8 49502.1 48866.3 43933.3 43780.4 43327.2 39273.4 36741.3 35309.3
threshold=37.074999000000005 44.141667500000004 18.15082499980927 0 30.024999500000003 27.600975000858309 49.491667000000007 25.485383333762488 32.801733332872395 36.432549999157594 14.184091667334242 632.3824350000001 40.491667000000007 24.484916667143509 21.685508332649871 30.024999500000003 55.44166700000001 30.568108334143961 25.384524999062226 35.654383333524073 24.524999500000003 54.908334000000004 33.35833250000001 39.991667000000007 39.403200000524528 888.3959050000002 33.550783334175755 27.484558333953228 182.50527500000001 34.008333000000007
decision_type=2 2 2 1 2 2 2 2 2 2 2 2 2 2 2 2 2 2 2 2 2 2 2 2 2 2 2 2 2 2
left_child=2 5 3 11 13 14 8 22 18 21 25 28 26 20 -2 -12 -11 29 -3 -14 -4 27 -6 -16 -10 -5 -7 -8 -1 -9
right_child=1 6 4 10 7 12 9 17 24 16 15 -13 19 -15 23 -17 -18 -19 -20 -21 -22 -23 -24 -25 -26 -27 -28 -29 -30 -31
leaf_value=-0.21612196207135667 -0.013800738105220832 0.035070927099304032 -0.096396502969007494 -0.11207696353164665 -0.044567139308537021 0.025583210697396806 0.070346351550455793 -0.01985452477417475 0.08765304865263121 0.14096593125226295 -0.094370239297293837 -0.12761840037790778 0.049221841374312472 -0.042987954942896103 0.0033374129460937529 -0.063742298057444219 0.18655077821734117 0.010140318209086506 0.067511734973710477 0.070730868728859225 -0.066771351406750543 0.13938509652336062 -0.027913881817361329 0.023859709949609918 0.10803971310495611 -0.083621108042851958 0.044181517103059162 0.10728357208509637 -0.17589123054197614 -0.0013762233421243373
leaf_weight=4178 26931 10275 11016 22784 27425 26442 4110 18764 21384 17489 18167 8872 32164 19433 24019 48672 7002 35280 20772 25053 21760 4338 51122 22445 20904 7089 23801 9607 4971 23037
leaf_count=4178 26931 10275 11016 22784 27425 26442 4110 18764 21384 17489 18167 8872 32164 19433 24019 48672 7002 35280 20772 25053 21760 4338 51122 22445 20904 7089 23801 9607 4971 23037
internal_value=0 5.70164 -5.245 -9.4766 -2.90901 2.94559 10.003 -1.73219 8.03919 13.3879 -8.23397 -16.1453 4.73034 -6.41697 0.332482 -7.2067 15.3999 -0.0603313 5.67755 5.86398 -7.67284 10.6588 -3.37284 1.3251 9.77307 -10.5324 3.43936 9.62161 -19.4263 -0.967093
internal_weight=0 296736 322570 114733 207837 180855 115881 155628 73335 42546 96712 18021 107460 52209 73395 66839 24491 77081 31047 57217 32776 18055 78547 46464 42288 29873 50243 13717 9149 41801
internal_count=619306 296736 322570 114733 207837 180855 115881 155628 73335 42546 96712 18021 107460 52209 73395 66839 24491 77081 31047 57217 32776 18055 78547 46464 42288 29873 50243 13717 9149 41801
cat_boundaries=0 1
cat_threshold=2
shrinkage=0.01


Tree=13
num_leaves=31
num_cat=2
split_feature=44 44 0 44 0 44 44 0 0 0 50 44 0 0 44 44 0 42 0 44 44 50 42 0 0 0 15 0 0 15
split_gain=1.81519e+07 3.44908e+06 3.12646e+06 1.00453e+06 950171 745504 612638 341540 304860 276655 245761 222036 155865 139422 113764 82039.7 73680.7 65280.5 62822 60943.1 59175.8 56827.4 56729.9 56467.9 51538.7 50998 50139.1 44488 43044.7 40350.7
threshold=37.074999000000005 44.991667000000007 19.085300000508628 26.125000000000004 27.700158333778386 30.024999500000003 51.241667000000007 27.020349999268852 31.152333333094919 14.491666666666669 388.35702500000008 40.991667000000007 38.16798333326976 21.685508332649871 25.841667000000005 32.024999500000007 35.654383333524073 41.408334000000004 39.403200000524528 18.125000000000004 34.091666000000011 484.99240000000003 56.44166700000001 23.266974999507273 23.168049999078118 35.654383333524073 0 25.285508332649872 28.850358333190286 1
decision_type=2 2 2 2 2 2 2 2 2 2 2 2 2 2 2 2 2 2 2 2 2 2 2 2 2 2 1 2 2 1
left_child=2 4 3 10 13 14 8 23 24 21 26 25 28 -2 -4 -11 -13 -15 -10 -12 -9 29 -14 -7 -3 -6 -1 -16 -8 -5
right_child=1 6 5 9 11 7 12 20 18 15 19 16 22 17 27 -17 -18 -19 -20 -21 -22 -23 -24 -25 -26 -27 -28 -29 -30 -31
leaf_value=-0.20453062546081416 -0.012703594614266069 0.030622202563706586 -0.082182104836493658 -0.1896704628906738 0.029546588758444833 -0.035852473843897219 0.091215441584392598 -0.0091324496573178433 0.092112467327563757 -0.077979500249077141 -0.15283419871668591 0.053291019098693708 0.14906297542199107 0.0044708597300400317 -0.060036900202803646 -0.055851544441515896 0.075466409597568992 0.027278081090504933 0.1150852440994001 -0.11403198415109506 0.010605832699245261 -0.08817891164590376 0.18808709305152208 -0.019066962371990501 0.066511431369502855 0.049217151204548476 -0.14471645422293211 -0.035790307009821019 0.13009499659959425 -0.11148370817715408
leaf_weight=5829 27940 5204 16194 697 38810 45197 4070 25524 25488 26657 5460 32409 9191 26812 17305 45105 27867 23593 22335 15649 37511 17685 6264 36009 17314 19958 1845 13448 9481 12455
leaf_count=5829 27940 5204 16194 697 38810 45197 4070 25524 25488 26657 5460 32409 9191 26812 17305 45105 27867 23593 22335 15649 37511 17685 6264 36009 17314 19958 1845 13448 9481 12455
internal_value=0 5.64463 -5.19255 -8.94813 3.22592 -2.61176 10.4503 -1.4852 8.85562 -7.48356 -14.1687 5.0058 14.3174 0.521419 -6.07303 -6.40713 6.35432 1.51462 10.2842 -12.4068 0.261345 -9.98857 16.488 -2.84093 5.82173 3.62268 -19.015 -4.94341 11.8418 -11.5627
internal_weight=0 296736 322570 131382 197389 191188 99347 144241 70341 102599 28783 119044 29006 78345 46947 71762 60276 50405 47823 21109 63035 30837 15455 81206 22518 58768 7674 30753 13551 13152
internal_count=619306 296736 322570 131382 197389 191188 99347 144241 70341 102599 28783 119044 29006 78345 46947 71762 60276 50405 47823 21109 63035 30837 15455 81206 22518 58768 7674 30753 13551 13152
cat_boundaries=0 1 2
cat_threshold=2 2
shrinkage=0.01


Tree=14
num_leaves=31
num_cat=1
split_feature=44 0 44 44 0 44 0 0 50 0 42 44 0 44 0 44 44 44 50 44 15 0 0 44 0 0 50 0 50 0
split_gain=1.77943e+07 3.55494e+06 2.83429e+06 1.19166e+06 857312 720591 461639 398356 319150 257944 222776 188207 157288 146201 135752 95967 95447.6 82427.3 82234.3 70234.5 67495.1 61327.4 51353.8 46674.8 42956 42551.1 40873.9 40186.2 34351.9 34174.7
threshold=38.008333000000007 20.684016666809722 46.008333000000007 26.924999000000003 29.534016666809723 32.024999500000007 36.752791666984564 15.800733333826068 413.52117500000003 28.351466667652137 54.324999000000005 42.008333000000007 22.434400000174843 27.424999000000003 27.25074166655541 33.024999500000007 54.274999500000007 19.308334000000006 550.65700000000004 42.008333000000007 0 37.984866666793828 26.518074999252956 49.491667000000007 23.884716665744786 13.087383333841961 1432.6944000000001 35.217925000190739 888.3959050000002 18.383433334032699
decision_type=2 2 2 2 2 2 2 2 2 2 2 2 2 2 2 2 2 2 2 2 1 2 2 2 2 2 2 2 2 2
left_child=1 3 4 8 12 13 14 18 20 24 23 -6 29 26 -4 -9 -16 -10 25 -14 -1 -13 -15 -8 -7 -5 -3 -11 -19 -2
right_child=2 5 6 7 11 9 10 15 17 27 -12 21 19 22 16 -17 -18 28 -20 -21 -22 -23 -24 -25 -26 -27 -28 -29 -30 -31
leaf_value=-0.20061736528145507 -0.023137682761478939 -0.091440244490578998 0.058514546428730066 -0.12108203881744765 0.045416893828236493 -0.025167071297168182 0.10876054715263868 -0.065769340815629435 -0.14317757957768723 0.0078015534909671117 0.17188189005512045 0.063490575616543435 0.016604503725226163 -0.044887169011349703 0.090952605848595491 -0.042916549650989157 0.14376033620374451 -0.12098556323316671 -0.077793826687993187 0.039834306845336058 -0.13966453495144812 0.08587686326953993 -0.022591271800452752 0.13394361500956969 -0.0093598356372454963 -0.091630192362343182 -0.059038402313934625 0.02780518553778074 -0.094359638832720083 0.0024497917843064885
leaf_weight=6336 7095 5419 12317 8426 52044 30742 17311 30608 7347 43100 11097 30575 35484 22937 25390 45980 3956 7691 29836 20555 2547 20404 18796 12803 39002 11741 13827 13094 13097 19749
leaf_count=6336 7095 5419 12317 8426 52044 30742 17311 30608 7347 43100 11097 30575 35484 22937 25390 45980 3956 7691 29836 20555 2547 20404 18796 12803 39002 11741 13827 13094 13097 19749
internal_value=0 -4.69381 6.12139 -8.09771 3.95326 -1.71437 10.985 -6.6383 -13.0885 -0.348116 13.3581 5.8794 1.55907 -4.53606 8.6377 -5.20496 9.80714 -11.4386 -8.83372 2.51252 -18.3141 7.24505 -3.48454 11.9467 -1.63274 -10.3936 -6.81616 1.24627 -10.4211 -0.43131
internal_weight=0 350526 268780 163609 185906 186917 82874 126591 37018 125938 41211 103023 82883 60979 41663 76588 29346 28135 50003 56039 8883 50979 41733 30114 69744 20167 19246 56194 20788 26844
internal_count=619306 350526 268780 163609 185906 186917 82874 126591 37018 125938 41211 103023 82883 60979 41663 76588 29346 28135 50003 56039 8883 50979 41733 30114 69744 20167 19246 56194 20788 26844
cat_boundaries=0 1
cat_threshold=2
shrinkage=0.01


Tree=15
num_leaves=31
num_cat=2
split_feature=44 44 0 15 44 0 44 0 0 0 0 50 0 0 44 44 0 0 44 44 44 44 44 42 0 0 44 0 50 3
split_gain=1.74447e+07 3.31744e+06 3.00828e+06 900703 808100 778586 748221 401400 291736 219031 215639 188524 157414 131610 116696 98289.7 92878 71957 67267.1 67192.4 61349.1 58514.6 56244.9 54410.1 53632.9 44157.2 42787.6 37087.9 34604.1 31369
threshold=37.074999000000005 43.991667000000007 18.15082499980927 0 30.024999500000003 26.418816665808365 49.491667000000007 25.886675000190738 32.801733332872395 36.432549999157594 14.184091667334242 632.3824350000001 33.685691666603098 23.884716665744786 30.024999500000003 55.44166700000001 19.668358333905541 25.384524999062226 40.591666000000011 34.091666000000011 40.091666000000011 54.908334000000004 24.524999500000003 41.408334000000004 21.685508332649871 45.019625000158953 30.024999500000003 27.484558333953228 182.50527500000001 1
decision_type=2 2 2 1 2 2 2 2 2 2 2 2 2 2 2 2 2 2 2 2 2 2 2 2 2 2 2 2 2 1
left_child=2 5 3 11 13 16 8 24 17 21 26 28 20 22 -12 -11 -2 -3 -14 -9 -7 27 -4 -18 -6 29 -5 -8 -1 -10
right_child=1 6 4 10 7 12 9 19 25 15 14 -13 18 -15 -16 -17 23 -19 -20 -21 -22 -23 -24 -25 -26 -27 -28 -29 -30 -31
leaf_value=-0.20997818233287466 -0.02214131135823038 0.033458095205442046 -0.094747296720658847 -0.1165937112228338 -0.040214300977099063 0.022059998110796269 0.068321044879443391 -0.011198141501656041 0.096068317336382061 0.13681587072676832 -0.091556426084979436 -0.12406890685596307 0.043392887302079304 -0.043754575764444609 -0.061856014347008638 0.18115259941709216 -0.002158802397899489 0.065261428365630841 0.065734457205454164 0.0082627378567819969 0.042141417349699221 0.13559702395039958 -0.065967008046647804 0.019454982292451323 -0.024073220680772684 0.11534117592050157 -0.092263426777577914 0.10421581094759795 -0.17093504609870216 0.07517810515016092
leaf_weight=4178 14681 10643 10359 12258 40125 29201 4110 30179 24209 17489 18167 8872 24090 22139 48672 7002 28821 21457 30588 43050 31759 4338 19711 19546 42274 8223 17615 9607 4971 10972
leaf_count=4178 14681 10643 10359 12258 40125 29201 4110 30179 24209 17489 18167 8872 24090 22139 48672 7002 28821 21457 30588 43050 31759 4338 19711 19546 42274 8223 17615 9607 4971 10972
internal_value=0 5.53358 -5.0904 -9.20061 -2.82142 2.81586 9.64724 -1.67933 7.7574 13.001 -7.99114 -15.6914 4.35719 -6.22583 -6.99287 14.9492 -0.0111159 5.47168 5.58912 0.0242556 3.2522 10.3585 -7.58817 0.657573 -3.19333 9.44783 -10.2247 9.34607 -18.8765 8.96019
internal_weight=0 296736 322570 114733 207837 178686 118050 155628 75504 42546 96712 18021 115638 52209 66839 24491 63048 32100 54678 73229 60960 18055 30070 48367 82399 43404 29873 13717 9149 35181
internal_count=619306 296736 322570 114733 207837 178686 118050 155628 75504 42546 96712 18021 115638 52209 66839 24491 63048 32100 54678 73229 60960 18055 30070 48367 82399 43404 29873 13717 9149 35181
cat_boundaries=0 1 2
cat_threshold=2 4065280
shrinkage=0.01


Tree=16
num_leaves=31
num_cat=1
split_feature=44 44 0 15 44 0 44 0 0 0 0 50 0 44 44 44 0 0 44 0 44 44 0 42 44 44 0 44 0 50
split_gain=1.70975e+07 3.25143e+06 2.94864e+06 898334 772296 763092 733325 373038 285951 226120 214692 194652 154282 124788 118896 97025 91029.7 69272.9 65928.5 65878.4 60128.3 56593.6 54656.8 53327.3 48040.1 46269 43961.8 39255.7 35654.7 34474.9
threshold=37.074999000000005 43.991667000000007 18.383433334032699 0 30.024999500000003 26.418816665808365 49.491667000000007 25.886675000190738 32.684933332602192 14.335116666555406 36.267450000842423 632.3824350000001 33.685691666603098 25.225000500000004 31.075001000000004 55.44166700000001 19.668358333905541 25.384524999062226 40.591666000000011 32.917016667127619 40.091666000000011 54.908334000000004 25.285508332649872 41.408334000000004 33.35833250000001 30.024999500000003 45.019625000158953 33.258333000000007 23.068458332618082 1432.6944000000001
decision_type=2 2 2 1 2 2 2 2 2 2 2 2 2 2 2 2 2 2 2 2 2 2 2 2 2 2 2 2 2 2
left_child=2 5 3 11 13 16 8 24 17 25 21 -1 20 29 -11 -12 -2 -3 -14 27 -7 28 -15 -18 -6 -5 -10 -9 -8 -4
right_child=1 6 4 9 7 12 10 19 26 14 15 -13 18 22 -16 -17 23 -19 -20 -21 -22 -23 -24 -25 -26 -27 -28 -29 -30 -31
leaf_value=-0.18670516436313722 -0.021919898194471623 0.033123513870325055 -0.10460770825900832 -0.11479970832121027 -0.041668674882951021 0.021839397862467691 0.0474467027075565 -0.017242928935738686 0.088533661798408145 -0.086059770460859206 0.1352506064297983 -0.12173542060821904 0.0429589586018609 -0.060936950548219494 -0.058376141574536959 0.1791003170994977 -0.0021372141932157365 0.064429152444757554 0.065077113319202809 0.015714710704892609 0.04172000393501997 0.13396440708442389 -0.035695333543515818 0.019260432624435896 -0.025356105556901407 -0.090260496600935658 0.11418776408855974 0.0007461267064704665 0.098091652996617873 -0.073425201924377098
leaf_weight=9188 14681 10643 5662 12882 27716 29201 1573 18700 35593 23709 17689 9258 24090 21427 44883 7060 28821 21045 30588 19998 31759 4269 14306 19546 51784 19041 8223 34531 11955 9485
leaf_count=9188 14681 10643 5662 12882 27716 29201 1573 18700 35593 23709 17689 9258 24090 21427 44883 7060 28821 21045 30588 19998 31759 4269 14306 19546 51784 19041 8223 34531 11955 9485
internal_value=0 5.47825 -5.03949 -8.99493 -2.72848 2.78771 9.55078 -1.60437 7.67984 -7.81773 12.871 -15.4097 4.31361 -6.10275 -6.79451 14.7759 -0.0110047 5.39146 5.53323 0.024013 3.21968 10.222 -5.08313 0.650997 -3.10431 -10.0163 9.33482 -0.557341 9.22028 -8.50813
internal_weight=0 296736 322570 118961 203609 178686 118050 152729 75504 100515 42546 18446 115638 50880 68592 24749 63048 31688 54678 73229 60960 17797 35733 48367 79500 31923 43816 53231 13528 15147
internal_count=619306 296736 322570 118961 203609 178686 118050 152729 75504 100515 42546 18446 115638 50880 68592 24749 63048 31688 54678 73229 60960 17797 35733 48367 79500 31923 43816 53231 13528 15147
cat_boundaries=0 1
cat_threshold=2
shrinkage=0.01


Tree=17
num_leaves=31
num_cat=2
split_feature=44 0 44 44 0 44 44 0 50 0 0 44 0 44 0 44 50 44 44 0 0 15 0 0 0 50 0 0 42 3
split_gain=1.67614e+07 3.35269e+06 2.67393e+06 1.12844e+06 808544 679494 436324 381296 294116 251587 243624 176979 148520 138168 104150 95033.1 81058.6 77521.6 65526.3 58401.7 56229.5 54068.8 52908.9 47499.5 46617.4 41188.8 40439.4 38245.9 37424.4 35949.7
threshold=38.008333000000007 20.684016666809722 46.008333000000007 26.674999000000003 29.534016666809723 32.024999500000007 52.591666000000011 15.800733333826068 388.35702500000008 31.968358333905538 28.351466667652137 42.008333000000007 22.533375000953679 27.658333000000002 38.16798333326976 33.024999500000007 632.3824350000001 19.308334000000006 42.008333000000007 37.984866666793828 44.558333333333344 0 23.068458332618082 12.305366667111716 26.518074999252956 1432.6944000000001 23.884716665744786 35.217925000190739 59.10833250000001 1
decision_type=2 2 2 2 2 2 2 2 2 2 2 2 2 2 2 2 2 2 2 2 2 1 2 2 2 2 2 2 2 1
left_child=1 3 4 8 12 13 9 16 21 22 26 -6 -2 25 -8 -9 23 -10 -14 -13 29 -1 -4 -5 -15 -3 -7 -12 -16 -11
right_child=2 5 6 7 11 10 14 15 17 20 27 19 18 24 28 -17 -18 -19 -20 -21 -22 -23 -24 -25 -26 -27 -28 -29 -30 -31
leaf_value=-0.19624405791790533 -0.0038769971002755583 -0.087778953471189872 0.031793049394509103 -0.12351992428445858 0.044085298158688162 -0.024415093092047747 0.120961915976274 -0.064185236348807337 -0.1400024799986857 0.1072715172747826 0.0075940178793326143 0.061556477554055855 0.016253418788812004 -0.043062205581504261 0.15429700025072524 -0.041594902502481886 -0.074042192160000964 -0.10237395053163036 0.038825255592022594 0.083402247967979598 0.12683572413542732 -0.13790473733567457 0.072208371857142281 -0.091187114945822073 -0.021482203105451615 -0.056281541387540414 -0.0090778873053835359 0.02710875787239185 0.19414858202168397 0.08258402571464242
leaf_weight=6029 27537 5767 4057 6093 52044 30742 9677 31298 7525 21672 43100 30575 35020 22069 8663 45980 26561 20098 20326 20404 10771 2157 16069 17868 18320 14823 39002 13094 3237 8728
leaf_count=6029 27537 5767 4057 6093 52044 30742 9677 31298 7525 21672 43100 30575 35020 22069 8663 45980 26561 20098 20326 20404 10771 2157 16069 17868 18320 14823 39002 13094 3237 8728
internal_value=0 -4.55554 5.94107 -7.86119 3.83516 -1.66209 10.6651 -6.47103 -12.8226 9.30376 -0.335372 5.70572 1.51008 -4.40213 14.5325 -5.07441 -8.60729 -11.2625 2.4543 7.03001 10.7202 -18.0872 6.40614 -9.9409 -3.32738 -6.51036 -1.58383 1.21412 16.5137 10.0246
internal_weight=0 350526 268780 163609 185906 186917 82874 127800 35809 61297 125938 103023 82883 60979 21577 77278 50522 27623 55346 50979 41171 8186 20126 23961 40389 20590 69744 56194 11900 30400
internal_count=619306 350526 268780 163609 185906 186917 82874 127800 35809 61297 125938 103023 82883 60979 21577 77278 50522 27623 55346 50979 41171 8186 20126 23961 40389 20590 69744 56194 11900 30400
cat_boundaries=0 1 2
cat_threshold=2 4065280
shrinkage=0.01


Tree=18
num_leaves=31
num_cat=1
split_feature=44 44 0 15 0 44 44 0 0 0 50 44 0 0 0 44 0 0 44 44 0 42 44 0 44 50 44 50 0 44
split_gain=1.64314e+07 3.12572e+06 2.83667e+06 851068 780938 760818 652852 377640 323059 203631 177635 154462 141595 124775 116939 110305 70212.6 69115.4 64012.9 57831.5 52899.7 51463.9 47514.9 47230.4 45611.5 41240.7 39888.7 33177.7 31307.3 31266.2
threshold=37.074999000000005 44.408334000000004 18.15082499980927 0 27.700158333778386 30.024999500000003 51.241667000000007 25.485383333762488 32.801733332872395 14.184091667334242 632.3824350000001 40.991667000000007 38.16798333326976 24.484916667143509 21.685508332649871 30.024999500000003 24.585783332586292 30.45109999974569 47.991667000000007 24.141666500000003 34.635516667366034 56.44166700000001 39.991667000000007 35.654383333524073 33.35833250000001 888.3959050000002 56.991667000000007 182.50527500000001 29.416875000794732 34.008333000000007
decision_type=2 2 2 1 2 2 2 2 2 2 2 2 2 2 2 2 2 2 2 2 2 2 2 2 2 2 2 2 2 2
left_child=2 4 3 10 14 13 8 24 16 25 27 23 26 19 -2 -11 -3 29 -10 -4 -13 -14 -16 -6 -7 -5 28 -1 -8 -9
right_child=1 6 5 9 11 7 12 17 18 15 -12 20 21 -15 22 -17 -18 -19 -20 -21 -22 -23 -24 -25 -26 -27 -28 -29 -30 -31
leaf_value=-0.20409903484049341 -0.012851415913209176 0.033348802441916278 -0.092332339443259887 -0.10581808154935896 0.028035694183761391 -0.042124060227148756 0.080307458602644655 -0.019131092234163 0.088725388031710539 -0.088885684454107661 -0.12052771284464625 0.04767500078844223 0.14196715180392458 -0.040326552627307208 0.0032941905391818032 -0.060010026887919572 0.065999121590484211 0.0095331708504056457 0.11234988605099717 -0.063496062055677246 0.068031892707060435 0.17913596304237536 0.023168021261207785 0.046965717124435424 -0.026138610126266299 -0.078199906990453358 0.14665697203681954 -0.16586905196117244 0.11628005632250447 -0.0015739196385382689
leaf_weight=4178 27200 9041 10015 22784 38810 27425 3663 18384 30994 18167 8872 24614 9191 19433 24410 48672 24258 36070 18207 22761 26518 6264 23720 19958 51122 7089 2762 4971 7126 22627
leaf_count=4178 27200 9041 10015 22784 38810 27425 3663 18384 30994 18167 8872 24614 9191 19433 24410 48672 24258 36070 18207 22761 26518 6264 23720 19958 51122 7089 2762 4971 7126 22627
internal_value=0 5.37048 -4.94035 -8.9316 2.85232 -2.73704 9.55356 -1.62886 8.11881 -7.75593 -15.241 4.55227 13.6343 -6.04035 0.372226 -6.78585 5.71342 -0.0563791 9.74677 -7.23072 5.82325 15.7032 1.30886 3.44645 -3.172 -9.92642 11.2748 -18.3327 10.4067 -0.944427
internal_weight=0 296736 322570 114733 185230 207837 111506 155628 82500 96712 18021 109900 29006 52209 75330 66839 33299 77081 49201 32776 51132 15455 48130 58768 78547 29873 13551 9149 10789 41011
internal_count=619306 296736 322570 114733 185230 207837 111506 155628 82500 96712 18021 109900 29006 52209 75330 66839 33299 77081 49201 32776 51132 15455 48130 58768 78547 29873 13551 9149 10789 41011
cat_boundaries=0 1
cat_threshold=2
shrinkage=0.01


Tree=19
num_leaves=31
num_cat=2
split_feature=44 0 44 44 44 0 0 0 0 0 42 44 44 0 0 44 44 0 50 44 50 0 0 50 0 15 44 15 0 44
split_gain=1.6106e+07 3.22571e+06 2.57048e+06 951071 802826 777372 420457 323542 269961 224161 201770 186342 169876 142468 124626 87858.3 78888 70916.8 68088.6 63601.9 59305.3 56566.4 50231.6 46905.3 45954.6 42101.5 41677 33200.4 32596.4 32558.2
threshold=38.008333000000007 19.208333333333336 46.008333000000007 26.125000000000004 32.024999500000007 29.534016666809723 36.752791666984564 26.917299999793375 15.187608333428702 6.9296500007311517 54.324999000000005 26.924999000000003 42.008333000000007 22.434400000174843 27.25074166655541 54.274999500000007 32.524999500000007 26.217966665824257 484.99240000000003 42.008333000000007 689.32855000000006 37.984866666793828 33.434291666746141 1134.9110500000004 22.752008332808817 0 49.491667000000007 1 38.573066665728895 41.524999500000007
decision_type=2 2 2 2 2 2 2 2 2 2 2 2 2 2 2 2 2 2 2 2 2 2 2 2 2 1 2 1 2 2
left_child=1 3 5 9 11 13 14 24 18 -1 26 23 28 29 -4 -16 -10 -13 25 -15 27 -14 -9 -3 -6 -5 -8 -11 -7 -2
right_child=2 4 6 8 7 12 10 22 16 20 -12 17 21 19 15 -17 -18 -19 -20 -21 -22 -23 -24 -25 -26 -27 -28 -29 -30 -31
leaf_value=-0.18536582614438732 -0.01203284610907652 -0.10158965893763709 0.055457041713509188 -0.1784034244702204 -0.029257498749179326 0.038748737581161423 0.10365351611393059 0.0032624794508640505 -0.070216972400412414 -0.16288588927991504 0.16365318998677489 -0.046832598668213564 0.060300654930787775 0.015757397112655974 0.0865283901170424 0.13719319346185285 -0.047702525014278727 -0.022857179561804539 -0.078784040296593569 0.037863137846869885 -0.10672213242465993 0.081800443219504623 0.021616949294119888 -0.064756995855334148 -0.013426580963617553 -0.10149135471496532 0.12745015474933941 -0.12167593827591233 0.057222677745760023 0.011237365749965859
leaf_weight=6432 17752 4338 12317 747 35301 39441 17311 45612 25128 3629 11097 30295 30575 35484 25390 3956 40884 20813 25861 20555 14838 20404 22152 17033 38156 15069 12803 4238 12603 9092
leaf_count=6432 17752 4338 12317 747 35301 39441 17311 45612 25128 3629 11097 30295 30575 35484 25390 3956 40884 20813 25861 20555 14838 20404 22152 17033 38156 15069 12803 4238 12603 9092
internal_value=0 -4.46558 5.82376 -8.25673 -2.03822 3.75899 10.4555 -0.64966 -6.88534 -13.3253 12.7203 -4.74375 5.59313 1.47916 8.21534 9.33583 -5.62728 -3.7069 -8.87798 2.38657 -11.849 6.89058 0.926254 -7.22335 -2.10344 -10.5124 11.3771 -14.0686 4.32224 -0.415128
internal_weight=0 350526 268780 136826 213700 185906 82874 141221 107689 29137 41211 72479 103023 82883 41663 29346 66012 51108 41677 56039 22705 50979 67764 21371 73457 15816 30114 7867 52044 26844
internal_count=619306 350526 268780 136826 213700 185906 82874 141221 107689 29137 41211 72479 103023 82883 41663 29346 66012 51108 41677 56039 22705 50979 67764 21371 73457 15816 30114 7867 52044 26844
cat_boundaries=0 1 2
cat_threshold=2 2
shrinkage=0.01


Tree=20
num_leaves=31
num_cat=2
split_feature=44 44 0 15 44 0 44 0 0 0 0 50 0 0 44 44 0 0 0 44 44 44 44 42 44 3 44 44 0 44
split_gain=1.57915e+07 3.0046e+06 2.72628e+06 819926 731428 706186 680461 362509 265017 197715 196170 170457 143041 120559 106189 90018 85145.8 66638.9 65474.8 60803.1 55741.9 52715.9 51398.4 50486.3 43899.6 41784.3 40111.2 38874.1 33542 31261.3
threshold=37.074999000000005 43.991667000000007 18.15082499980927 0 30.024999500000003 26.418816665808365 49.491667000000007 25.485383333762488 32.801733332872395 36.267450000842423 14.184091667334242 572.87085000000013 33.685691666603098 23.884716665744786 31.008333000000004 55.44166700000001 19.552816667159401 32.917016667127619 25.384524999062226 40.591666000000011 40.091666000000011 54.908334000000004 24.524999500000003 41.408334000000004 33.35833250000001 1 30.024999500000003 34.091666000000011 23.068458332618082 23.708333500000006
decision_type=2 2 2 1 2 2 2 2 2 2 2 2 2 2 2 2 2 2 2 2 2 2 2 2 2 1 2 2 2 2
left_child=2 5 3 11 13 16 8 24 18 21 26 -1 20 22 29 -11 -2 27 -3 -14 -7 28 -4 -18 -6 -10 -5 -9 -8 -12
right_child=1 6 4 10 7 12 9 17 25 15 14 -13 19 -15 -16 -17 23 -19 -20 -21 -22 -23 -24 -25 -26 -27 -28 -29 -30 -31
leaf_value=-0.18199198217247051 -0.021800944420657484 0.031711239854396965 -0.090293896250488448 -0.11121472502684313 -0.041292133343236503 0.020957909174906912 0.045281730971718892 -0.014952612257403857 0.096348730989096742 0.13001269098867294 -0.10943696836072496 -0.12038760945507472 0.041324499416743529 -0.041510732907825788 -0.057523782136431903 0.17224934195730343 -0.002249530034488776 0.015149532020808817 0.062048258987814804 0.062565519237472986 0.040099628123075437 0.12899704385270133 -0.062781502893205859 0.018452724497743846 -0.025609547831265247 0.074477395102421212 -0.087657672331761194 0.0015977430370953504 0.094403270348504056 -0.078691844430299182
leaf_weight=8513 14090 10643 10359 12258 27425 29201 1573 26422 30502 17689 4029 9508 24090 22139 44351 7060 29223 19998 21457 30588 31759 4269 19711 19735 51122 12902 17615 30661 11955 18459
leaf_count=8513 14090 10643 10359 12258 27425 29201 1573 26422 30502 17689 4029 9508 24090 22139 44351 7060 29223 19998 21457 30588 31759 4269 19711 19735 51122 12902 17615 30661 11955 18459
internal_value=0 5.26486 -4.84318 -8.75601 -2.68317 2.67846 9.17975 -1.59661 7.37751 12.3781 -7.60205 -14.9489 4.14637 -5.92206 -6.64991 14.2061 -0.0138764 -0.0559531 5.19898 5.32072 3.09304 9.83597 -7.22594 0.609556 -3.10852 8.98868 -9.7324 -0.606292 8.86915 -8.42002
internal_weight=0 296736 322570 114733 207837 178686 118050 155628 75504 42546 96712 18021 115638 52209 66839 24749 63048 77081 32100 54678 60960 17797 30070 48958 78547 43404 29873 57083 13528 22488
internal_count=619306 296736 322570 114733 207837 178686 118050 155628 75504 42546 96712 18021 115638 52209 66839 24749 63048 77081 32100 54678 60960 17797 30070 48958 78547 43404 29873 57083 13528 22488
cat_boundaries=0 1 2
cat_threshold=2 4065280
shrinkage=0.01


Tree=21
num_leaves=31
num_cat=1
split_feature=44 44 0 44 0 44 44 0 0 0 50 44 0 0 44 44 0 0 50 42 0 44 44 44 15 42 0 50 50 44
split_gain=1.54773e+07 2.94686e+06 2.67317e+06 876089 811446 626140 527028 284194 274332 256961 192312 189034 126171 119444 96998.7 79693.4 65676.2 64276.9 59415.7 55407.5 51930.5 49333.9 48850.8 47536.3 45928.4 45003.4 44877.8 38288.1 35691.7 35460.6
threshold=37.074999000000005 44.991667000000007 19.208333333333336 25.225000500000004 27.700158333778386 30.024999500000003 51.591666000000011 27.367791666587198 33.550783334175755 14.784524999062223 339.86819500000007 40.991667000000007 38.16798333326976 21.685508332649871 25.841667000000005 32.024999500000007 24.585783332586292 37.103333334128074 484.99240000000003 41.408334000000004 23.266974999507273 34.091666000000011 16.691666000000001 47.991667000000007 0 59.10833250000001 36.432549999157594 1934.9709500000001 1118.8021500000002 58.10833250000001
decision_type=2 2 2 2 2 2 2 2 2 2 2 2 2 2 2 2 2 2 2 2 2 2 2 2 1 2 2 2 2 2
left_child=2 4 3 10 13 14 8 20 16 18 -1 26 29 -2 28 -11 -3 -13 24 -15 -7 -9 -12 -10 -5 -14 -6 -16 -4 -8
right_child=1 6 5 9 11 7 12 21 23 15 22 17 25 19 27 -17 -18 -19 -20 -21 -22 -23 -24 -25 -26 -27 -28 -29 -30 -31
leaf_value=-0.18231518131090471 -0.011811983185488572 0.033922582775075941 -0.10494608094139345 -0.1749567922653058 0.02784263394831207 -0.032894749699950709 0.10365945170356604 -0.0078867149885542363 0.089519930165940967 -0.071977802753750778 -0.1492675619915585 0.050643322911608023 0.14476847367218487 0.0041302959185584341 -0.056712522740623009 -0.050252826706274192 0.068010385190573605 0.0719644434123594 -0.080678812630706795 0.025142166352762656 -0.017032102062839585 0.010592305072892685 -0.11066443018651803 0.1110014442780686 -0.10215663933135302 0.1870567098723199 0.047066294047410119 -0.034278812174588127 -0.068068562625287723 0.14963717998578471
leaf_weight=6358 27940 7490 3319 924 41621 43840 10595 24201 23095 27508 4175 37623 11307 26812 14937 43724 23034 22653 21485 23593 38996 35847 15260 18596 13949 3237 17147 15505 12542 1993
leaf_count=6358 27940 7490 3319 924 41621 43840 10595 24201 23095 27508 4175 37623 11307 26812 14937 43724 23034 22653 21485 23593 38996 35847 15260 18596 13949 3237 17147 15505 12542 1993
internal_value=0 5.21221 -4.79475 -8.22319 2.97653 -2.37759 9.65422 -1.34197 8.24244 -6.96835 -13.4575 4.62136 13.4118 0.47724 -5.57338 -5.86425 5.96459 5.86563 -9.13149 1.39653 -2.54272 0.314475 -11.8957 9.91016 -10.6679 15.418 3.34516 -4.52864 -7.57854 11.0939
internal_weight=0 296736 322570 133383 197389 189187 99347 142884 72215 107590 25793 119044 27132 78345 46303 71232 30524 60276 36358 50405 82836 60048 19435 41691 14873 14544 58768 30442 15861 12588
internal_count=619306 296736 322570 133383 197389 189187 99347 142884 72215 107590 25793 119044 27132 78345 46303 71232 30524 60276 36358 50405 82836 60048 19435 41691 14873 14544 58768 30442 15861 12588
cat_boundaries=0 1
cat_threshold=2
shrinkage=0.01


Tree=22
num_leaves=31
num_cat=1
split_feature=44 0 44 44 0 44 0 0 50 0 42 44 0 44 0 44 44 44 50 44 15 0 0 0 44 50 0 0 0 0
split_gain=1.51721e+07 3.04406e+06 2.42357e+06 1.03513e+06 733298 605214 397540 348269 278789 215948 190207 159930 134120 123791 118660 84838.8 81533.2 74680.1 73950.4 59384.5 56565.9 53802.3 43029.5 41047.4 38703.4 38482.7 35383.9 35093.3 33588.2 32393.7
threshold=38.008333000000007 20.784108332792922 46.008333000000007 26.924999000000003 29.534016666809723 32.024999500000007 36.752791666984564 15.800733333826068 413.52117500000003 28.351466667652137 54.324999000000005 42.008333000000007 22.533375000953679 27.658333000000002 27.600975000858309 33.024999500000007 54.274999500000007 19.308334000000006 632.3824350000001 42.008333000000007 0 37.984866666793828 13.087383333841961 27.700158333778386 48.991667000000007 1432.6944000000001 35.217925000190739 23.884716665744786 20.784108332792922 18.383433334032699
decision_type=2 2 2 2 2 2 2 2 2 2 2 2 2 2 2 2 2 2 2 2 1 2 2 2 2 2 2 2 2 2
left_child=1 3 4 8 12 13 14 18 20 27 24 -6 29 25 28 -9 -16 -10 22 -14 -1 -13 -5 -15 -8 -3 -11 -7 -4 -2
right_child=2 5 6 7 11 9 10 15 17 26 -12 21 19 23 16 -17 -18 -19 -20 -21 -22 -23 -24 -25 -26 -27 -28 -29 -30 -31
leaf_value=-0.18573714731460914 -0.022111905904095199 -0.083949710309868864 0.02012273272191278 -0.11094237304313953 0.04195774972756014 -0.023005845234830437 0.099466469544005828 -0.060592754498410228 -0.13298512256515024 0.0072223052178764105 0.15891095185878848 0.058485649067324584 0.015413858194527525 -0.038951275458193928 0.084464758063318171 -0.039305147294260344 0.13384865205414578 -0.095994352217722539 -0.070072160729076502 0.036901843513893702 -0.13000440968456634 0.079453557200815636 -0.083439132208670025 -0.017851246650576521 0.12214961740103294 -0.053148027906757725 0.025992691235881073 -0.0085883638321463205 0.062198242318613026 0.0026880521255688385
leaf_weight=6340 7095 5612 2301 9473 52044 29769 15494 31190 7367 43100 11097 30575 35020 25544 24682 46832 3867 21060 26291 20326 2555 20404 14239 14427 14620 14631 13094 39002 10813 20442
leaf_count=6340 7095 5612 2301 9473 52044 29769 15494 31190 7367 43100 11097 30575 35020 25544 24682 46832 3867 21060 26291 20326 2555 20404 14239 14427 14620 14631 13094 39002 10813 20442
internal_value=0 -4.33419 5.65241 -7.45282 3.64751 -1.54955 10.1499 -6.10189 -12.0869 -0.294638 12.352 5.4289 1.43326 -4.15393 7.97159 -4.78151 9.11539 -10.5581 -8.16214 2.33054 -16.9728 6.68779 -9.44267 -3.13355 11.0479 -6.16872 1.15961 -1.48293 5.48156 -0.370174
internal_weight=0 350526 268780 165347 185906 185179 82874 128025 37322 124965 41211 103023 82883 60214 41663 78022 28549 28427 50003 55346 8895 50979 23712 39971 30114 20243 56194 68771 13114 27537
internal_count=619306 350526 268780 165347 185906 185179 82874 128025 37322 124965 41211 103023 82883 60214 41663 78022 28549 28427 50003 55346 8895 50979 23712 39971 30114 20243 56194 68771 13114 27537
cat_boundaries=0 1
cat_threshold=2
shrinkage=0.01


Tree=23
num_leaves=31
num_cat=1
split_feature=44 44 0 15 44 0 44 0 0 0 0 50 0 0 44 44 0 0 0 44 44 44 44 44 44 0 50 0 50 44
split_gain=1.48742e+07 2.83339e+06 2.57263e+06 777682 688527 666248 642421 340787 250619 185509 185278 161241 135524 115218 99999.6 85540.1 80585.4 63930.9 62039.2 58603.4 57190.4 52581.2 49878.9 47935.9 42112.6 40808 39009.7 32071.2 30832.7 29125.1
threshold=37.074999000000005 43.991667000000007 18.15082499980927 0 30.024999500000003 26.418816665808365 49.491667000000007 25.485383333762488 30.334533333778385 36.267450000842423 14.184091667334242 632.3824350000001 33.685691666603098 25.285508332649872 31.008333000000004 55.44166700000001 19.552816667159401 30.45109999974569 38.573066665728895 24.524999500000003 40.591666000000011 40.091666000000011 54.908334000000004 39.991667000000007 33.35833250000001 21.184783333539965 888.3959050000002 27.484558333953228 182.50527500000001 23.708333500000006
decision_type=2 2 2 1 2 2 2 2 2 2 2 2 2 2 2 2 2 2 2 2 2 2 2 2 2 2 2 2 2 2
left_child=2 5 3 11 13 16 8 24 25 22 26 28 21 19 29 -11 -2 -9 -10 -4 -14 -7 27 -18 -6 -3 -5 -8 -1 -12
right_child=1 6 4 10 7 12 9 17 18 15 14 -13 20 -15 -16 -17 23 -19 -20 -21 -22 -23 -24 -25 -26 -27 -28 -29 -30 -31
leaf_value=-0.19480654490998398 -0.021244669413916263 0.012517556617008558 -0.085701773841312598 -0.10085324065330262 -0.040135553072977767 0.020299965236345648 0.06285432979873104 -0.00908249896935771 0.07385092748703663 0.12615239326298305 -0.10605890068213773 -0.11495083510967304 0.040144825041150752 -0.035127518954056088 -0.055812350843012823 0.16732512983669254 -0.0031366907381740554 0.0091693105443942814 0.095827069495829267 -0.058515519856127074 0.060745152759424353 0.038891085549211155 0.12536796609441642 0.016736067606168168 -0.024775468036053693 0.050063874428474806 -0.07399249605655879 0.096333470044764488 -0.15795241456945339 -0.076382834810301545
leaf_weight=4178 14090 3373 11736 22784 27425 29201 4110 41011 27928 17689 4029 8872 24090 16029 44351 7060 26709 36070 23787 24444 30588 31759 4269 22249 51122 20416 7089 9418 4971 18459
leaf_count=4178 14090 3373 11736 22784 27425 29201 4110 41011 27928 17689 4029 8872 24090 16029 44351 7060 26709 36070 23787 24444 30588 31759 4269 22249 51122 20416 7089 9418 4971 18459
internal_value=0 5.10967 -4.70042 -8.50139 -2.60216 2.59804 8.91139 -1.54794 7.16025 12.019 -7.37754 -14.5326 4.02384 -5.74462 -6.45221 13.7897 -0.0170576 -0.0541577 8.39591 -6.73341 5.16691 2.99856 9.55664 0.58945 -3.01385 4.47402 -9.44791 8.6162 -17.4782 -8.16997
internal_weight=0 296736 322570 114733 207837 178686 118050 155628 75504 42546 96712 18021 115638 52209 66839 24749 63048 77081 51715 36180 54678 60960 17797 48958 78547 23789 29873 13528 9149 22488
internal_count=619306 296736 322570 114733 207837 178686 118050 155628 75504 42546 96712 18021 115638 52209 66839 24749 63048 77081 51715 36180 54678 60960 17797 48958 78547 23789 29873 13528 9149 22488
cat_boundaries=0 1
cat_threshold=2
shrinkage=0.01


Tree=24
num_leaves=31
num_cat=3
split_feature=44 44 0 15 0 44 44 0 0 0 44 50 0 0 0 44 0 0 15 44 42 0 3 50 42 0 44 44 44 44
split_gain=1.45782e+07 2.77726e+06 2.52158e+06 780408 764766 649147 498240 308749 259441 200383 178059 171644 118954 112536 106310 105137 62216.9 60800.4 54117.3 53863.6 52138.7 50089.4 47350.1 46299.9 43170.7 42877.9 42313.3 33931.9 33476 32300.5
threshold=37.074999000000005 44.991667000000007 18.501491665840152 0 27.700158333778386 30.024999500000003 51.591666000000011 26.518074999252956 33.550783334175755 14.335116666555406 40.991667000000007 632.3824350000001 38.16798333326976 21.685508332649871 25.285508332649872 31.475000500000004 24.585783332586292 37.103333334128074 1 33.141667500000004 41.408334000000004 22.434400000174843 2 836.08599500000003 59.10833250000001 36.432549999157594 30.024999500000003 58.10833250000001 48.208333500000009 23.225000500000004
decision_type=2 2 2 1 2 2 2 2 2 2 2 2 2 2 2 2 2 2 1 2 2 2 1 2 2 2 2 2 2 2
left_child=2 4 3 11 13 14 8 21 16 26 25 -1 27 -2 18 29 -3 -12 23 -9 -15 -7 28 -4 -14 -6 -5 -8 -10 -11
right_child=1 6 5 9 10 7 12 19 22 15 17 -13 24 20 -16 -17 -18 -19 -20 -21 -22 -23 -24 -25 -26 -27 -28 -29 -30 -31
leaf_value=-0.17281340728240138 -0.011479342643397712 0.03279341742208295 -0.14591201300413645 -0.10655088050095327 0.026981355739754156 -0.034771192546704806 0.10061649074800454 -0.01285780212499836 0.093721810609101827 -0.10514160418883453 0.049132730280622337 -0.11213444266549966 0.14050558291236015 0.0040010269055634267 -0.034776243763664012 -0.053004370741950683 0.065971351607914702 0.069869255402114069 -0.058118641453660462 0.0069995952691076137 0.024383679152874271 -0.019297845982309471 0.078758683323823395 -0.078054319036299127 0.18192378522102756 0.045771784665843009 -0.083084097975466273 0.14559220084930805 0.11503525466957777 -0.073683223265879269
leaf_weight=9209 27940 7490 1141 12882 41621 43550 10595 19023 16985 3825 37623 9441 11307 26812 16029 44445 23034 22653 24552 48453 23593 40262 11689 8467 3237 17147 19041 1993 13017 22250
leaf_count=9209 27940 7490 1141 12882 41621 43550 10595 19023 16985 3825 37623 9441 11307 26812 16029 44445 23034 22653 24552 48453 23593 40262 11689 8467 3237 17147 19041 1993 13017 22250
internal_value=0 5.05857 -4.65341 -8.25984 2.88817 -2.48586 9.37086 -1.452 7.99818 -7.17666 4.48499 -14.2097 13.0244 0.461838 -5.60228 -6.23567 5.78301 5.6926 -6.59924 0.140135 1.35415 -2.7338 9.62001 -8.61128 14.9724 3.24639 -9.25537 10.7737 10.2935 -7.82979
internal_weight=0 296736 322570 121093 197389 201477 99347 151288 72215 102443 119044 18650 27132 78345 50189 70520 30524 60276 34160 67476 50405 83812 41691 9608 14544 58768 31923 12588 30002 26075
internal_count=619306 296736 322570 121093 197389 201477 99347 151288 72215 102443 119044 18650 27132 78345 50189 70520 30524 60276 34160 67476 50405 83812 41691 9608 14544 58768 31923 12588 30002 26075
cat_boundaries=0 1 2 3
cat_threshold=2 2 4065280
shrinkage=0.01


Tree=25
num_leaves=31
num_cat=1
split_feature=44 0 44 44 0 44 0 0 0 0 42 44 0 44 0 50 44 44 50 44 44 0 0 0 44 15 50 0 0 0
split_gain=1.42923e+07 2.87175e+06 2.28585e+06 979865 720758 571285 350465 328775 264085 203354 169227 165134 129878 116978 106277 83553.9 80178.1 72391.9 71027.4 46881.4 46372.8 45058 41707.8 40870.8 39952 38925.9 35918.1 35518.4 33901 33078.6
threshold=38.008333000000007 20.784108332792922 46.35833250000001 26.924999000000003 29.534016666809723 32.024999500000007 36.752791666984564 15.800733333826068 6.9296500007311517 28.351466667652137 54.324999000000005 42.991667000000007 23.884716665744786 27.424999000000003 27.600975000858309 689.32855000000006 33.024999500000007 54.274999500000007 550.65700000000004 42.375000000000007 41.524999500000007 38.768766667445512 36.752791666984564 27.700158333778386 20.991667000000003 0 1118.8021500000002 13.087383333841961 35.067799999316541 23.884716665744786
decision_type=2 2 2 2 2 2 2 2 2 2 2 2 2 2 2 2 2 2 2 2 2 2 2 2 2 1 2 2 2 2
left_child=1 3 4 8 12 13 14 18 -1 29 -8 21 20 26 -4 25 -9 -16 27 -14 -2 -6 -13 -15 -17 -10 -3 -5 -11 -7
right_child=2 5 6 7 11 9 10 16 15 28 -12 22 19 23 17 24 -18 -19 -20 -21 -22 -23 -24 -25 -26 -27 -28 -29 -30 -31
leaf_value=-0.17474520171293989 -0.0081286261112541273 -0.091953930618213317 0.054517129069315419 -0.10939325169789395 0.038910402529135919 -0.022296886509485647 0.10826381311110683 -0.058806236702125432 -0.15338980456398554 0.0068639048087073455 0.15430560304790292 0.059317042530663437 0.018025529685700675 -0.038297768629597016 0.083360679618736708 -0.11288941679324788 -0.038111614422875084 0.1301156209184125 -0.069432446498875228 0.039055395586554228 0.015017828400164664 0.058111728562549515 0.079654058687319534 -0.017530566426561773 -0.084105713510918584 -0.11232977709677174 -0.054799993343694946 -0.082485084678222909 0.024931131614893166 -0.0082993901053361862
leaf_weight=6617 23701 3115 12220 8426 49449 29769 28448 31190 4029 42444 11097 20419 30477 26569 23056 7390 46832 3867 29836 16254 13635 16233 19924 14731 13878 5408 15799 11741 13750 39002
leaf_count=6617 23701 3115 12220 8426 49449 29769 28448 31190 4029 42444 11097 20419 30477 26569 23056 7390 46832 3867 29836 16254 13635 16233 19924 14731 13878 5408 15799 11741 13750 39002
internal_value=0 -4.20664 5.48607 -7.23572 3.60978 -1.50196 10.0187 -5.92134 -11.7444 -0.282731 12.1184 5.34367 1.42301 -4.03228 7.8975 -10.5096 -4.63845 9.00762 -7.92311 2.53401 0.0324393 4.36559 6.93608 -3.08905 -9.41072 -12.986 -6.0919 -9.37276 1.12847 -1.43585
internal_weight=0 350526 268780 165347 190092 185179 78688 128025 37322 124965 39545 106025 84067 60214 39143 30705 78022 26923 50003 46731 37336 65682 40343 41300 21268 9437 18914 20167 56194 68771
internal_count=619306 350526 268780 165347 190092 185179 78688 128025 37322 124965 39545 106025 84067 60214 39143 30705 78022 26923 50003 46731 37336 65682 40343 41300 21268 9437 18914 20167 56194 68771
cat_boundaries=0 1
cat_threshold=2
shrinkage=0.01


Tree=26
num_leaves=31
num_cat=3
split_feature=44 44 0 15 44 0 44 0 0 0 0 50 0 0 44 44 0 44 0 44 44 15 44 44 0 3 50 50 50 0
split_gain=1.40102e+07 2.67059e+06 2.42586e+06 734505 648390 628200 608121 320595 236670 174612 174595 151935 128196 109015 94612.5 80957.6 76928.9 57577.4 57462.4 54080.7 49733.9 47579.9 47220 45359.8 45193.3 40944 37617 36858.2 32823.6 31048
threshold=37.074999000000005 43.991667000000007 18.15082499980927 0 30.024999500000003 26.418816665808365 49.491667000000007 25.886675000190738 32.684933332602192 14.184091667334242 36.267450000842423 461.34520000000003 33.685691666603098 23.884716665744786 30.024999500000003 55.44166700000001 19.552816667159401 34.091666000000011 25.384524999062226 40.591666000000011 40.091666000000011 1 54.908334000000004 39.991667000000007 21.685508332649871 2 888.3959050000002 836.08599500000003 1037.9206500000003 22.868541665871941
decision_type=2 2 2 1 2 2 2 2 2 2 2 2 2 2 2 2 2 2 2 2 2 1 2 2 2 1 2 2 2 2
left_child=2 5 3 11 13 16 8 24 18 26 22 -1 20 21 -11 -12 -2 -9 -3 -14 -7 27 29 -18 -6 -10 -5 -4 -13 -8
right_child=1 6 4 9 7 12 10 17 25 14 15 28 19 -15 -16 -17 23 -19 -20 -21 -22 -23 -24 -25 -26 -27 -28 -29 -30 -31
leaf_value=-0.1764685573518387 -0.020777318054846231 0.029707082978586249 -0.14139745057560504 -0.097964296439061474 -0.036145209832901433 0.01965978812721272 0.0403400847160146 -0.010378757380203479 0.090876787473600659 -0.082097141415440264 0.12248703840698122 -0.13333600479160557 0.038962072675885334 -0.038897661622222864 -0.055354264860269307 0.16254176043406943 -0.0030461895135341418 0.0076360103898882375 0.058219413062177434 0.058994504031501561 0.037740544205881292 -0.060233616045275815 0.12184259339679815 0.016285218717164995 -0.021328424854382268 0.069369850017555135 -0.071587373192036771 -0.08002317755689653 -0.098272600145589153 0.088989546217310186
leaf_weight=7266 14090 10643 1128 22784 40125 29201 1472 30179 30787 18167 17689 5829 24090 22139 48672 7060 26709 43050 21045 30588 31759 21559 4269 22249 42274 13029 7089 7383 4926 12056
leaf_count=7266 14090 10643 1128 22784 40125 29201 1472 30179 30787 18167 17689 5829 24090 22139 48672 7060 26709 43050 21045 30588 31759 21559 4269 22249 42274 13029 7089 7383 4926 12056
internal_value=0 4.95905 -4.56186 -8.2528 -2.52433 2.52064 8.64994 -1.50131 6.94618 -7.1606 11.6735 -14.1142 3.90512 -5.57383 -6.2623 13.3913 -0.0186893 0.0211798 4.8643 5.01686 2.90795 -6.81371 9.28462 0.573898 -2.85436 8.45181 -9.17049 -8.81574 -11.7276 8.36959
internal_weight=0 296736 322570 114733 207837 178686 118050 155628 75504 96712 42546 18021 115638 52209 66839 24749 63048 73229 31688 54678 60960 30070 17797 48958 82399 43816 29873 8511 10755 13528
internal_count=619306 296736 322570 114733 207837 178686 118050 155628 75504 96712 42546 18021 115638 52209 66839 24749 63048 73229 31688 54678 60960 30070 17797 48958 82399 43816 29873 8511 10755 13528
cat_boundaries=0 1 2 3
cat_threshold=2 2 4065280
shrinkage=0.01


Tree=27
num_leaves=31
num_cat=2
split_feature=44 0 44 44 0 44 42 0 0 0 0 44 0 44 50 44 0 50 0 44 0 0 0 44 15 0 3 0 0 0
split_gain=1.37323e+07 2.75986e+06 2.19849e+06 938793 692930 559307 337380 307137 259246 208135 199931 159048 125157 115028 81944.9 73102.8 71173.3 65617.6 59214.9 57712.1 54414.8 45049.4 40389.1 40362.4 38257.5 37613.2 36722.1 32990.3 32858.8 31404.9
threshold=38.008333000000007 20.684016666809722 46.35833250000001 27.174999000000003 29.534016666809723 32.024999500000007 54.324999000000005 15.685525000095369 6.9296500007311517 31.267966665824257 28.351466667652137 42.008333000000007 22.533375000953679 26.924999000000003 689.32855000000006 33.024999500000007 39.183691666523622 632.3824350000001 44.558333333333344 42.008333000000007 36.752791666984564 28.551674999793374 23.168049999078118 21.641666500000003 0 12.305366667111716 1 23.884716665744786 35.95155833363534 16.868300000826519
decision_type=2 2 2 2 2 2 2 2 2 2 2 2 2 2 2 2 2 2 2 2 2 2 2 2 1 2 1 2 2 2
left_child=1 3 4 8 12 13 9 17 -1 22 27 -6 29 -3 24 -9 -8 25 26 -14 -13 -15 -4 -16 -10 -5 -11 -7 -12 -2
right_child=2 5 6 7 11 10 16 15 14 18 28 20 19 21 23 -17 -18 -19 -20 -21 -22 -23 -24 -25 -26 -27 -28 -29 -30 -31
leaf_value=-0.17126649361325702 -0.031062470983984378 -0.062274837877145002 0.030340908287714893 -0.11197628613742414 0.039901691694884986 -0.022001676973153427 0.11555505492837746 -0.057749525179848639 -0.15009836418688033 0.099291330822379328 0.0075433277993869818 0.054774143298945088 0.014628601170081157 -0.037600572752548009 -0.10904181820577691 -0.037914612066243303 0.15549738571842156 -0.066680702276397941 0.11857853269326431 0.035526052805387558 0.074872044047131187 -0.014965399991064266 0.066381741229099719 -0.081098562469804444 -0.10996459629875338 -0.082653456202725406 0.075576264807887247 -0.0081489031245853671 0.027570940504557211 0.00066733973471558739
leaf_weight=6663 3580 16625 4013 5886 52044 30742 8543 30705 4074 21754 46238 28123 35020 32268 8405 47059 9337 24659 11289 21225 25858 12086 13809 13427 5696 17035 9943 39002 9956 24242
leaf_count=6663 3580 16625 4013 5886 52044 30742 8543 30705 4074 21754 46238 28123 35020 32268 8405 47059 9337 24659 11289 21225 25858 12086 13809 13427 5696 17035 9943 39002 9956 24242
internal_value=0 -4.12341 5.37753 -7.1226 3.53745 -1.49821 9.82273 -5.79908 -11.458 8.69991 -0.294521 5.23754 1.3933 -3.98414 -10.2629 -4.57464 13.6413 -7.80028 9.89117 2.25146 6.44014 -3.14327 5.82664 -9.18563 -12.67 -9.01834 9.19073 -1.4255 1.10917 -0.34155
internal_weight=0 350526 268780 163609 190092 186917 78688 125344 38265 60808 125938 106025 84067 60979 31602 77764 17880 47580 42986 56245 53981 44354 17822 21832 9770 22921 31697 69744 56194 27822
internal_count=619306 350526 268780 163609 190092 186917 78688 125344 38265 60808 125938 106025 84067 60979 31602 77764 17880 47580 42986 56245 53981 44354 17822 21832 9770 22921 31697 69744 56194 27822
cat_boundaries=0 1 2
cat_threshold=2 1968128
shrinkage=0.01


Tree=28
num_leaves=31
num_cat=2
split_feature=44 44 0 15 44 0 44 0 0 0 50 0 0 44 44 0 0 0 42 44 0 50 0 44 42 44 44 50 3 50
split_gain=1.34643e+07 2.56735e+06 2.33309e+06 707659 623068 604070 585600 307768 262957 168072 146217 135651 123509 105915 94561.1 73962.6 61403.6 59864.7 52334 51880.7 49808.3 49217.2 48974.1 47824.1 42923.8 39851.8 34764.5 33814.7 33501.4 31626.8
threshold=37.074999000000005 43.991667000000007 18.15082499980927 0 30.024999500000003 26.418816665808365 50.44166700000001 25.485383333762488 32.801733332872395 14.017216666539513 461.34520000000003 39.183691666523622 33.685691666603098 25.225000500000004 31.475000500000004 19.668358333905541 25.585250000158947 32.917016667127619 56.44166700000001 40.591666000000011 28.652300000190738 1934.9709500000001 45.019625000158953 40.091666000000011 41.408334000000004 33.658334000000004 34.091666000000011 888.3959050000002 1 1037.9206500000003
decision_type=2 2 2 1 2 2 2 2 2 2 2 2 2 2 2 2 2 2 2 2 2 2 2 2 2 2 2 2 1 2
left_child=2 5 3 10 13 15 8 25 16 27 -1 20 23 -4 -11 -2 -3 26 -13 -14 -8 -15 28 -7 -17 -6 -9 -5 -10 -12
right_child=1 6 4 9 7 12 11 17 22 14 29 18 19 21 -16 24 -18 -19 -20 -21 -22 -23 -24 -25 -26 -27 -28 -29 -30 -31
leaf_value=-0.17310619086129689 -0.019853356082452974 0.030999089725168478 -0.076359356353756 -0.097142217857206073 -0.037704180750773461 0.01925821258838158 0.073416306440656789 -0.014137654041362318 0.086663193459870697 -0.076984211133592328 -0.13080252363735248 0.12682984786211221 0.038219112026178545 -0.05633644625457971 -0.052830874193033395 -0.0019848315850900357 0.059016476670977459 0.01437441383512332 0.16398474327464618 0.05783983961446687 0.1105852448791679 -0.033087987221206594 0.10549358281859633 0.036988415400016794 0.017212467028800821 -0.023043087517357598 0.0015134640295560999 -0.070785146976241137 0.066182772009914487 -0.096384307202844119
leaf_weight=7266 14681 11922 15693 21214 29993 29201 4962 26422 26969 25922 5829 10697 24090 19174 43259 28821 22748 19998 5872 30588 13186 17342 9726 31759 19546 48554 30661 6317 11968 4926
leaf_count=7266 14681 11922 15693 21214 29993 29201 4962 26422 26969 25922 5829 10697 24090 19174 43259 28821 22748 19998 5872 30588 13186 17342 9726 31759 19546 48554 30661 6317 11968 4926
internal_value=0 4.86148 -4.4721 -8.09178 -2.47391 2.47067 8.48032 -1.47106 7.04275 -7.01973 -13.8451 11.931 3.82831 -5.46326 -6.18811 -0.0194091 4.93821 -0.0514799 13.9997 4.91954 10.0423 -4.52954 8.54212 2.84953 0.577315 -2.86414 -0.573097 -9.10946 8.04074 -11.5038
internal_weight=0 296736 322570 114733 207837 178686 118050 155628 83333 96712 18021 34717 115638 52209 69181 63048 34670 77081 16569 54678 18148 36516 48663 60960 48367 78547 57083 27531 38937 10755
internal_count=619306 296736 322570 114733 207837 178686 118050 155628 83333 96712 18021 34717 115638 52209 69181 63048 34670 77081 16569 54678 18148 36516 48663 60960 48367 78547 57083 27531 38937 10755
cat_boundaries=0 1 2
cat_threshold=2 4065280
shrinkage=0.01


Tree=29
num_leaves=31
num_cat=2
split_feature=44 44 0 44 0 44 44 0 0 0 50 44 0 44 0 44 0 50 44 0 0 3 44 0 42 15 44 50 44 0
split_gain=1.31964e+07 2.51718e+06 2.28798e+06 752343 693156 542952 454340 236115 228030 214080 163092 142548 131464 119833 108063 66628.9 56717.8 52800.5 50365.1 49968.3 46321.3 44497.2 43146 41715.8 40433.7 39782.9 36080.1 33135.4 32197.7 31908.6
threshold=37.074999000000005 44.991667000000007 19.085300000508628 25.225000500000004 28.850358333190286 31.075001000000004 51.591666000000011 33.550783334175755 27.25074166655541 14.784524999062223 339.86819500000007 40.991667000000007 22.434400000174843 25.841667000000005 38.16798333326976 32.024999500000007 24.585783332586292 484.99240000000003 40.991667000000007 25.285508332649872 38.768766667445512 0 16.691666000000001 23.266974999507273 59.10833250000001 1 39.991667000000007 888.3959050000002 58.10833250000001 33.184824999173486
decision_type=2 2 2 2 2 2 2 2 2 2 2 2 2 2 2 2 2 2 2 2 2 1 2 2 2 1 2 2 2 2
left_child=2 4 3 10 12 13 7 16 23 17 -1 -6 26 27 28 -11 -3 25 -14 -15 -13 -9 -12 -7 -16 -5 -2 -4 -8 -10
right_child=1 6 5 9 11 8 14 21 29 15 22 20 18 19 24 -17 -18 -19 -20 -21 -22 -23 -24 -25 -26 -27 -28 -29 -30 -31
leaf_value=-0.16908295697765902 -0.017492506845003902 0.031037581686960511 -0.10769319834389539 -0.16235214744682439 0.032608903120061788 -0.029153896773700786 0.095683389607959773 0.098071679624620073 -0.00089070771532278941 -0.066699974520980046 -0.13908066268349006 0.049424945295791847 0.0086224804763877973 -0.048359735176913214 0.13371687882560157 -0.046601061115435202 0.062715361363274366 -0.074296233983168133 0.028149042966863581 -0.026768791720973174 0.0690619161622614 0.074651212674510359 -0.10268752885093196 -0.014192887296101938 0.17380065083501134 -0.094597386527745547 0.0036145441276249934 -0.06498392840702813 0.13949476653234358 0.015181098996750492
leaf_weight=6351 19785 7490 2085 924 52434 40695 10595 30002 38444 26903 4163 38443 33903 23697 11307 42628 23034 21485 21641 19572 17472 11689 14979 34384 3237 13949 13711 14109 1993 18202
leaf_count=6351 19785 7490 2085 924 52434 40695 10595 30002 38444 26903 4163 38443 33903 23697 11307 42628 23034 21485 21641 19572 17472 11689 14979 34384 3237 13949 13711 14109 1993 18202
internal_value=0 4.81287 -4.42737 -7.64012 2.7466 -2.21962 8.91827 7.60746 -1.08737 -6.46597 -12.5171 4.44536 0.679438 -4.72781 12.4072 -5.43778 5.49422 -8.43228 1.62304 -3.85934 5.5561 9.15467 -11.0602 -2.23022 14.2638 -9.88067 -0.885271 -7.04828 10.262 0.427363
internal_weight=0 296736 322570 131382 197389 191188 99347 72215 131725 105889 25493 108349 89040 59463 27132 69531 30524 36358 55544 43269 55915 41691 19142 75079 14544 14873 33496 16194 12588 56646
internal_count=619306 296736 322570 131382 197389 191188 99347 72215 131725 105889 25493 108349 89040 59463 27132 69531 30524 36358 55544 43269 55915 41691 19142 75079 14544 14873 33496 16194 12588 56646
cat_boundaries=0 1 2
cat_threshold=4065280 2
shrinkage=0.01


Tree=30
num_leaves=31
num_cat=2
split_feature=44 0 44 44 0 44 0 0 50 0 42 44 0 44 0 44 50 44 44 0 15 44 44 50 0 0 51 0 3 0
split_gain=1.29355e+07 2.60402e+06 2.07518e+06 894752 653075 517677 319797 295679 248123 184413 152997 149409 118315 106590 97759 70074.2 67552.4 66985.6 66053.6 51633.6 49744.1 42979.5 42426.5 35913.6 35651.7 34871.8 32268.6 34666.7 30930.7 30491.2
threshold=38.008333000000007 20.784108332792922 46.35833250000001 27.174999000000003 29.534016666809723 32.024999500000007 36.752791666984564 16.047591668367392 413.52117500000003 28.351466667652137 54.324999000000005 42.008333000000007 23.884716665744786 27.658333000000002 27.600975000858309 20.208333500000006 550.65700000000004 54.274999500000007 33.024999500000007 36.752791666984564 0 41.524999500000007 42.991667000000007 1432.6944000000001 28.750391666094465 13.087383333841961 0.20441593500000002 34.635516667366034 1 48.218916666507731
decision_type=2 2 2 2 2 2 2 2 2 2 2 2 2 2 2 2 2 2 2 2 1 2 2 2 2 2 2 2 1 2
left_child=1 3 4 8 12 13 14 16 20 -7 29 28 21 23 -4 -10 25 -16 -9 -13 -1 -2 -14 -3 -15 -5 -11 -28 -6 -8
right_child=2 5 6 7 11 9 10 18 15 26 -12 19 22 24 17 -17 -18 -19 -20 -21 -22 -23 -24 -25 -26 -27 27 -29 -30 -31
leaf_value=-0.17191307499794797 -0.0079113597280897202 -0.078553765976570378 0.051659089337092498 -0.10399194292428718 0.045111073330007703 -0.013639516897388496 0.098038920308498756 -0.054820667279701418 -0.12030189068594925 -0.008586547000026222 0.14692945586246667 0.053097178131870509 0.018352808939912323 -0.03468537164999129 0.079303435392953051 -0.08676784325005428 -0.065014184842542358 0.12427864932984425 -0.035416952288342969 0.072674731509337995 -0.12079503852201004 0.014372148181652878 0.039892150791271154 -0.048797992723422341 -0.013510904631453376 -0.077484258215516522 0.0084434180616628531 0.0271623768575423 0.029336791248771071 0.12411667877807128
leaf_weight=6387 23701 5612 12220 8297 30942 68771 22871 28896 8945 7461 11097 28123 34256 29018 23056 20541 32562 3867 44657 25858 2712 13635 12475 14631 10953 12350 34930 13803 21102 5577
leaf_count=6387 23701 5612 12220 8297 30942 68771 22871 28896 8945 7461 11097 28123 34256 29018 23056 20541 32562 3867 44657 25858 2712 13635 12475 14631 10953 12350 34930 13803 21102 5577
internal_value=0 -4.00198 5.21918 -6.8864 3.43145 -1.42646 9.53793 -5.60299 -11.1028 -0.265848 11.5436 5.08193 1.34988 -3.83514 7.51164 -9.69409 -7.39864 8.57633 -4.30399 6.24752 -15.6677 0.0226513 2.41028 -5.70472 -2.88831 -8.81364 1.07803 1.37453 3.87295 10.3151
internal_weight=0 350526 268780 165347 190092 185179 78688 126762 38585 124965 39545 106025 84067 60214 39143 29486 53209 26923 73553 53981 9099 37336 46731 20243 39971 20647 56194 48733 52044 28448
internal_count=619306 350526 268780 165347 190092 185179 78688 126762 38585 124965 39545 106025 84067 60214 39143 29486 53209 26923 73553 53981 9099 37336 46731 20243 39971 20647 56194 48733 52044 28448
cat_boundaries=0 1 2
cat_threshold=2 4065280
shrinkage=0.01


Tree=31
num_leaves=31
num_cat=2
split_feature=44 44 0 15 0 0 44 44 0 0 44 44 50 0 0 0 44 44 0 0 44 50 44 44 50 0 0 44 44 15
split_gain=1.26823e+07 2.42032e+06 2.20144e+06 633151 626725 569710 556006 338655 214967 159004 141964 131626 120740 117353 70660.4 68680.7 64011.3 61938.7 57200 54841.1 48835.8 47791.7 45319 41345.6 39697 38719.4 36604.7 34797.1 32669.3 31643.5
